{
  "format": "json-mlp",
  "name": "pmk_cf_self_rally_v28_robot_base_disk",
  "sourceModel": "rl/artifacts/pmk_cf_self_rally_v28_robot_base_disk/pmk_cf_self_rally_v28_robot_base_disk_model.zip",
  "observationSize": 55,
  "actionSize": 15,
  "actionLow": [
    -0.019999999552965164,
    -0.019999999552965164,
    -0.029999999329447746,
    -0.00800000037997961,
    -0.00800000037997961,
    -0.3499999940395355,
    -0.3499999940395355,
    -0.3499999940395355,
    -0.44999998807907104,
    -0.75,
    -0.75,
    -0.3499999940395355,
    -0.3499999940395355,
    -0.07999999821186066,
    -0.02500000037252903
  ],
  "actionHigh": [
    0.019999999552965164,
    0.019999999552965164,
    0.029999999329447746,
    0.00800000037997961,
    0.00800000037997961,
    0.3499999940395355,
    0.3499999940395355,
    0.3499999940395355,
    0.44999998807907104,
    0.75,
    0.75,
    0.3499999940395355,
    0.3499999940395355,
    0.07999999821186066,
    0.02500000037252903
  ],
  "activation": "tanh",
  "squashOutput": false,
  "layers": [
    {
      "type": "linear",
      "weight": [
        [
          0.10934878885746002,
          -0.1836332380771637,
          -0.21782205998897552,
          0.2198524922132492,
          0.13164657354354858,
          -0.013601990416646004,
          -0.03134994953870773,
          -0.4852341413497925,
          -0.17544937133789062,
          -0.11648303270339966,
          -0.18573735654354095,
          0.1925988346338272,
          -0.05818379670381546,
          -0.044684603810310364,
          0.16090957820415497,
          0.11711645871400833,
          -0.45385369658470154,
          -0.17612037062644958,
          -0.3056555986404419,
          0.11831014603376389,
          0.15843383967876434,
          -0.2113335132598877,
          -0.34325069189071655,
          0.08756168186664581,
          0.1835649162530899,
          -0.025919530540704727,
          -0.10282986611127853,
          -0.1801610141992569,
          -0.16137497127056122,
          -0.01740679331123829,
          -0.2070619761943817,
          -0.0031029819510877132,
          -0.1010025218129158,
          -0.16620934009552002,
          -0.06514469534158707,
          -0.17131948471069336,
          0.05369965359568596,
          -0.05052083358168602,
          -0.22436179220676422,
          0.10607090592384338,
          -0.002378110308200121,
          -0.14484958350658417,
          0.09503575414419174,
          0.2804514467716217,
          -0.0744406059384346,
          -0.07227804511785507,
          0.2649354934692383,
          -0.16598618030548096,
          -0.1476374864578247,
          0.0761055201292038,
          -0.1484934389591217,
          0.4313851594924927,
          0.0928545892238617,
          -0.15175482630729675,
          -0.011564875021576881
        ],
        [
          -0.13760051131248474,
          -0.3266041576862335,
          -0.1047886312007904,
          0.02535312995314598,
          -0.10699174553155899,
          -0.02338283136487007,
          -0.2754034996032715,
          0.058848872780799866,
          -0.11842887103557587,
          0.06277202814817429,
          -0.14691005647182465,
          -0.28523144125938416,
          0.0669335350394249,
          0.08231455087661743,
          -0.3536340296268463,
          0.20681098103523254,
          0.20263852179050446,
          -0.16480951011180878,
          0.36723601818084717,
          0.23528556525707245,
          0.008622538298368454,
          -0.022441307082772255,
          -0.06184135004878044,
          0.47919416427612305,
          -0.2087223082780838,
          0.04910232871770859,
          0.011420789174735546,
          -0.1442864090204239,
          0.13921593129634857,
          -0.012001457624137402,
          -0.12633226811885834,
          0.13132379949092865,
          -0.4715642035007477,
          -0.3079070448875427,
          0.21957340836524963,
          -0.24255895614624023,
          -0.07589370757341385,
          0.013209233060479164,
          -0.1490272879600525,
          0.12135228514671326,
          0.022070040926337242,
          -0.26179006695747375,
          0.0693732351064682,
          -0.27932631969451904,
          -0.06753171235322952,
          0.12090097367763519,
          -0.005018637981265783,
          0.23235571384429932,
          0.20883338153362274,
          -0.21349820494651794,
          -0.0632026344537735,
          0.1239534243941307,
          0.03448881208896637,
          -0.12956494092941284,
          0.037298064678907394
        ],
        [
          -0.005227833520621061,
          0.031220344826579094,
          -0.23281311988830566,
          -0.11392460763454437,
          0.21020084619522095,
          -0.40882062911987305,
          -0.08179543912410736,
          -0.07390209287405014,
          -0.051099322736263275,
          0.10961386561393738,
          0.15829846262931824,
          -0.0024800878018140793,
          -0.18539924919605255,
          0.02604433335363865,
          0.4360238015651703,
          0.11900514364242554,
          0.3431469202041626,
          -0.03615773841738701,
          -0.004544364288449287,
          -0.17862887680530548,
          0.3341348469257355,
          -0.03081503137946129,
          0.027447331696748734,
          0.10599090158939362,
          0.11535637825727463,
          0.06648943573236465,
          -0.01859251782298088,
          -0.20953117311000824,
          -0.11161726713180542,
          -0.28364014625549316,
          -0.18036533892154694,
          -0.1697668582201004,
          -0.2913064658641815,
          0.19562295079231262,
          0.3487037718296051,
          0.08249178528785706,
          0.16691097617149353,
          0.08125459402799606,
          -0.19311018288135529,
          0.12938474118709564,
          0.011037594638764858,
          -0.06494559347629547,
          -0.1299912929534912,
          0.22211135923862457,
          0.10281968861818314,
          -0.03591470420360565,
          -0.2841172516345978,
          0.08943544328212738,
          0.09450992941856384,
          0.08819355070590973,
          0.24486933648586273,
          -0.38078299164772034,
          -0.009958495385944843,
          0.04545372352004051,
          -0.12666650116443634
        ],
        [
          0.051051776856184006,
          0.341833233833313,
          0.12219163775444031,
          0.10495725274085999,
          -0.012901153415441513,
          -0.1265743225812912,
          -0.14404045045375824,
          0.0647399052977562,
          0.023896384984254837,
          -0.11155787855386734,
          -0.3706972897052765,
          -0.5523031949996948,
          -0.19869914650917053,
          0.14644387364387512,
          -0.12372340261936188,
          -0.1602734625339508,
          -0.15667316317558289,
          0.15041273832321167,
          -0.0220972690731287,
          0.21671350300312042,
          0.055720601230859756,
          -0.39304932951927185,
          0.183089941740036,
          -0.0027647861279547215,
          0.028216715902090073,
          -0.04079258441925049,
          -0.10319386422634125,
          -0.1120811477303505,
          0.0682675912976265,
          -0.11298467218875885,
          0.03950674086809158,
          -0.20422032475471497,
          -0.005175418220460415,
          0.1781226098537445,
          0.34994593262672424,
          -0.07409653067588806,
          0.32836946845054626,
          0.0769999697804451,
          0.0731935128569603,
          -0.27376410365104675,
          -0.04607883468270302,
          0.23681937158107758,
          -0.21320626139640808,
          0.07184403389692307,
          -0.2185811549425125,
          0.13902215659618378,
          0.19142769277095795,
          -0.02230115607380867,
          0.050024859607219696,
          0.24152861535549164,
          0.08854474127292633,
          0.17317266762256622,
          -0.13971054553985596,
          -0.05567310377955437,
          0.22789369523525238
        ],
        [
          0.2122819423675537,
          -0.14012877643108368,
          -0.09422178566455841,
          0.17003698647022247,
          -0.06000108644366264,
          -0.06532258540391922,
          -0.22281888127326965,
          -0.24410191178321838,
          0.1365886926651001,
          -0.14738842844963074,
          -0.057773735374212265,
          0.007346118334680796,
          -0.09524527937173843,
          -0.032029878348112106,
          -0.13579897582530975,
          -0.3048238754272461,
          0.03704560548067093,
          0.11418944597244263,
          0.20931348204612732,
          -0.20144101977348328,
          0.08047184348106384,
          -0.04875926300883293,
          -0.3663809597492218,
          -0.2491188943386078,
          -0.02608741819858551,
          0.2026119977235794,
          -0.17951487004756927,
          0.3153245151042938,
          0.29843586683273315,
          -0.10315881669521332,
          0.14065060019493103,
          0.07025733590126038,
          -0.11861902475357056,
          0.056401774287223816,
          0.19911623001098633,
          0.17076602578163147,
          0.23716549575328827,
          -0.2600710988044739,
          0.027517208829522133,
          0.013051477260887623,
          0.012175342068076134,
          -0.06955400109291077,
          -0.06316982954740524,
          0.1442461609840393,
          0.10346952080726624,
          0.13851505517959595,
          -0.2603985071182251,
          0.0029832818545401096,
          0.09702904522418976,
          -0.09656672179698944,
          -0.24416671693325043,
          -0.049426645040512085,
          -0.2590858042240143,
          -0.07694625109434128,
          -0.17824451625347137
        ],
        [
          -0.05515997111797333,
          -0.030235348269343376,
          -0.05715328827500343,
          0.23451459407806396,
          -0.04491101950407028,
          0.33592361211776733,
          0.16405931115150452,
          -0.15223169326782227,
          0.5421708226203918,
          0.006670832168310881,
          -0.2745579779148102,
          0.047109127044677734,
          0.1583884060382843,
          0.16135470569133759,
          0.09493563324213028,
          0.31700411438941956,
          0.34418055415153503,
          -0.3663952946662903,
          0.08138064295053482,
          0.10821712017059326,
          0.12873587012290955,
          -0.09629210084676743,
          -0.038034405559301376,
          -0.34761878848075867,
          -0.06562893837690353,
          -0.01251584105193615,
          -0.20541857182979584,
          0.004170998930931091,
          0.1491091102361679,
          0.21540497243404388,
          -0.16163389384746552,
          0.1419631391763687,
          -0.13539709150791168,
          0.24063588678836823,
          0.14431580901145935,
          0.13803349435329437,
          -0.10959704965353012,
          0.33511456847190857,
          0.15531876683235168,
          -0.16798116266727448,
          -0.2756215035915375,
          0.009166255593299866,
          -0.03331713750958443,
          -0.07464606314897537,
          0.003914850763976574,
          -0.02237115055322647,
          -0.26341861486434937,
          -0.1170007511973381,
          -0.09896895289421082,
          0.11842119693756104,
          0.04083230346441269,
          0.16948235034942627,
          0.17287220060825348,
          -0.1767490804195404,
          0.07978186011314392
        ],
        [
          -0.17513538897037506,
          0.17073065042495728,
          -0.0753224715590477,
          0.20105208456516266,
          0.021788721904158592,
          -0.12518879771232605,
          0.4102885127067566,
          0.12305428087711334,
          0.12361042946577072,
          -0.039491478353738785,
          -0.0072451867163181305,
          0.12720970809459686,
          -0.2818963825702667,
          -0.016301259398460388,
          0.04369736462831497,
          -0.008800501003861427,
          -0.3688931465148926,
          -0.058636631816625595,
          0.2493012398481369,
          0.06606236100196838,
          -0.07325771450996399,
          0.041232697665691376,
          0.15033835172653198,
          0.1688978672027588,
          -0.2060132920742035,
          0.34690311551094055,
          -0.09829162061214447,
          -0.10694418102502823,
          -0.3399876058101654,
          0.13794277608394623,
          -0.17065615952014923,
          -0.010744212195277214,
          -0.13583500683307648,
          -0.08267703652381897,
          -0.050194963812828064,
          0.19935394823551178,
          -0.07044647634029388,
          -0.24901720881462097,
          0.40357986092567444,
          0.10204409807920456,
          -0.03345510736107826,
          0.03249837085604668,
          0.01923089660704136,
          0.039564915001392365,
          -0.19920937716960907,
          -0.37859851121902466,
          -0.20516575872898102,
          0.15152090787887573,
          0.3470897078514099,
          -0.08814091980457306,
          0.08199628442525864,
          0.15001094341278076,
          0.0040353755466639996,
          0.16202571988105774,
          0.06917725503444672
        ],
        [
          -0.12322338670492172,
          0.12978030741214752,
          -0.17514845728874207,
          0.16223877668380737,
          -0.03142472356557846,
          0.017795510590076447,
          0.15711402893066406,
          -0.20347924530506134,
          0.033690303564071655,
          -0.2610393464565277,
          0.03160908818244934,
          -0.03327934071421623,
          0.3238025903701782,
          0.2688860297203064,
          -0.017505645751953125,
          -0.09974994510412216,
          -0.22436867654323578,
          0.11554069072008133,
          0.024569619446992874,
          0.03694474324584007,
          0.21615375578403473,
          0.11148415505886078,
          -0.18372833728790283,
          -0.25311902165412903,
          0.018204517662525177,
          0.1725180596113205,
          0.007927481085062027,
          0.056026965379714966,
          0.04633915051817894,
          -0.23384228348731995,
          0.28317534923553467,
          0.06628236174583435,
          -0.09322023391723633,
          -0.06654535979032516,
          -0.04583246260881424,
          -0.3325740396976471,
          -0.12602609395980835,
          -0.13081982731819153,
          -0.07452642172574997,
          -0.19024430215358734,
          0.02377285622060299,
          -0.01112779974937439,
          0.094367615878582,
          0.10572853684425354,
          -0.004042941145598888,
          -0.20286084711551666,
          -0.13752257823944092,
          0.30099764466285706,
          0.17372921109199524,
          0.2289162576198578,
          0.12555740773677826,
          -0.14199255406856537,
          0.21688728034496307,
          0.043760109692811966,
          -0.25512340664863586
        ],
        [
          0.061347365379333496,
          0.07294667512178421,
          -0.13673998415470123,
          0.06508204340934753,
          0.10949454456567764,
          0.20778991281986237,
          0.08204461634159088,
          -0.23336724936962128,
          -0.14686992764472961,
          -0.04276400804519653,
          0.19696511328220367,
          -0.2939492464065552,
          0.021346161141991615,
          -0.22849467396736145,
          0.13340218365192413,
          0.10750138759613037,
          0.07520469278097153,
          -0.12807142734527588,
          -0.1667167693376541,
          -0.006352968048304319,
          -0.062204692512750626,
          0.04200353845953941,
          -0.3509041368961334,
          -0.11239074170589447,
          -0.5323279500007629,
          0.02694946527481079,
          0.14574067294597626,
          0.06780318915843964,
          -0.11675115674734116,
          0.061330150812864304,
          0.20490004122257233,
          0.04295162856578827,
          0.08429013937711716,
          -0.2142571359872818,
          0.20037388801574707,
          0.2356387972831726,
          0.05016079545021057,
          -0.07555381953716278,
          0.18151220679283142,
          -0.19293297827243805,
          -0.13648559153079987,
          -0.08422427624464035,
          -0.026336563751101494,
          -0.04597433656454086,
          -0.1782878339290619,
          0.21226686239242554,
          0.046691376715898514,
          0.014344117604196072,
          0.07671225070953369,
          -0.08561348170042038,
          0.09685423970222473,
          0.010071461088955402,
          -0.015913670882582664,
          0.004882102366536856,
          -0.06975307315587997
        ],
        [
          0.12207149714231491,
          0.09664470702409744,
          0.2620062828063965,
          0.08918502181768417,
          0.08257605880498886,
          0.011242975480854511,
          -0.00704212998971343,
          -0.4897896647453308,
          -0.296962708234787,
          -0.020203417167067528,
          0.042729515582323074,
          0.0821065753698349,
          0.05935732275247574,
          -0.0384976901113987,
          -0.1065286248922348,
          -0.19265031814575195,
          0.2952482998371124,
          0.05442475527524948,
          -0.03342322260141373,
          -0.08631259948015213,
          0.1356137990951538,
          0.2788349688053131,
          0.5063220858573914,
          -0.17548075318336487,
          0.06124113127589226,
          -0.06186564639210701,
          -0.21742939949035645,
          -0.11395309865474701,
          -0.06585691124200821,
          0.09789799153804779,
          0.1744805872440338,
          0.20892773568630219,
          -0.3563900291919708,
          -0.04141399636864662,
          -0.14717809855937958,
          -0.18363018333911896,
          -0.047874826937913895,
          -0.044538721442222595,
          0.09174822270870209,
          0.1579628884792328,
          -0.2266532927751541,
          0.29808151721954346,
          0.09243807941675186,
          -0.15433606505393982,
          -0.4007194936275482,
          0.010635542683303356,
          0.16616421937942505,
          0.06235563009977341,
          0.0036357268691062927,
          0.1055641919374466,
          -0.11834833025932312,
          -0.17459015548229218,
          0.05905637890100479,
          -0.10373707860708237,
          0.12927040457725525
        ],
        [
          0.0680827647447586,
          -0.13999125361442566,
          0.002087861765176058,
          0.2941870093345642,
          0.0873742327094078,
          -0.31480881571769714,
          0.0882987305521965,
          -0.2792673707008362,
          0.11855222284793854,
          0.148785799741745,
          -0.05589399114251137,
          0.023474689573049545,
          0.2649398446083069,
          0.13162361085414886,
          -0.20717668533325195,
          -0.15597349405288696,
          -0.12377266585826874,
          -0.21864604949951172,
          -0.010943739674985409,
          -0.06187038868665695,
          -0.17502792179584503,
          0.0850166529417038,
          -0.0031704925931990147,
          0.12980760633945465,
          -0.08786997199058533,
          0.03833761066198349,
          -0.006038396153599024,
          -0.06793662905693054,
          0.016024822369217873,
          -0.06479107588529587,
          -0.1075892373919487,
          -0.029435383155941963,
          0.14127448201179504,
          -0.11947447806596756,
          -0.18610619008541107,
          0.12561428546905518,
          -0.26355674862861633,
          0.19087010622024536,
          -0.3444836437702179,
          -0.33061203360557556,
          -0.08876663446426392,
          0.3900832235813141,
          -0.16214196383953094,
          0.09128750115633011,
          0.2592349350452423,
          0.21232976019382477,
          -0.03517314791679382,
          0.10505366325378418,
          0.11530140787363052,
          -0.32714158296585083,
          -0.025298381224274635,
          -0.3923409581184387,
          -0.08990570157766342,
          -0.07533188164234161,
          0.1763080209493637
        ],
        [
          0.28127118945121765,
          0.044785380363464355,
          0.034484848380088806,
          -0.11267191916704178,
          0.2029629498720169,
          0.19861777126789093,
          0.37517669796943665,
          0.39668092131614685,
          -0.043016109615564346,
          -0.049806147813797,
          -0.11339273303747177,
          0.17870184779167175,
          0.08866854012012482,
          0.10730420053005219,
          0.02798292599618435,
          0.1715954691171646,
          0.04377073049545288,
          0.06762254983186722,
          -0.041423872113227844,
          -0.17782942950725555,
          -0.1378110945224762,
          -0.34936410188674927,
          -0.0829147920012474,
          0.18442843854427338,
          -0.2563835382461548,
          0.10846372693777084,
          0.053388506174087524,
          0.07476281374692917,
          0.4760405123233795,
          -0.05973993241786957,
          0.2849641740322113,
          0.05415330454707146,
          -0.2062935084104538,
          -0.08971575647592545,
          -0.12318063527345657,
          -0.11972517520189285,
          0.15264955163002014,
          -0.00434234831482172,
          -0.12450700253248215,
          0.11161820590496063,
          -0.23140010237693787,
          0.0438348650932312,
          -0.3872039020061493,
          0.127716064453125,
          -0.15783245861530304,
          -0.14215178787708282,
          0.08748777955770493,
          0.04295223951339722,
          0.052146364003419876,
          0.028443414717912674,
          -0.20326381921768188,
          -0.18913616240024567,
          0.27022725343704224,
          0.16671815514564514,
          -0.06992755085229874
        ],
        [
          -0.21286755800247192,
          0.30431437492370605,
          0.12006238847970963,
          -0.12825512886047363,
          0.17395587265491486,
          0.220985546708107,
          -0.20083585381507874,
          -0.020817110314965248,
          -0.2996132969856262,
          0.27387145161628723,
          0.07052230834960938,
          -0.19843842089176178,
          0.23604810237884521,
          -0.00820998102426529,
          0.25644513964653015,
          -0.049758583307266235,
          -0.06206895783543587,
          0.1688525527715683,
          0.37201061844825745,
          -0.05239623412489891,
          0.02618260122835636,
          0.34641534090042114,
          -0.23270905017852783,
          -0.00531314080581069,
          0.08008503913879395,
          0.010979905724525452,
          -0.04462530091404915,
          0.20527124404907227,
          0.20800212025642395,
          0.4933117926120758,
          -0.2047465592622757,
          -0.011115703731775284,
          -0.13520199060440063,
          -0.10258364677429199,
          -0.03580304607748985,
          -0.10631375759840012,
          0.09656591713428497,
          -0.21385663747787476,
          -0.02516164630651474,
          -0.011463434435427189,
          -0.0441768504679203,
          0.20382119715213776,
          -0.05530455708503723,
          0.16414758563041687,
          0.09275799989700317,
          -0.08199930191040039,
          -0.1901644915342331,
          -0.24411027133464813,
          0.07385421544313431,
          -0.025775667279958725,
          0.17384804785251617,
          0.17024874687194824,
          -0.0838884487748146,
          -0.15232320129871368,
          -0.08951123058795929
        ],
        [
          -0.08332274109125137,
          0.04935925081372261,
          0.24950261414051056,
          -0.11367308348417282,
          0.008391483686864376,
          -0.046429768204689026,
          -0.3089118003845215,
          0.14212656021118164,
          0.2823311388492584,
          0.22692950069904327,
          -0.11180750280618668,
          0.30048176646232605,
          0.0009478507563471794,
          -0.033999066799879074,
          0.07635597884654999,
          0.24834875762462616,
          -0.0553881973028183,
          -0.11506649851799011,
          -0.14548121392726898,
          -0.15492643415927887,
          -0.14455293118953705,
          -0.1164083331823349,
          -0.09876038134098053,
          -0.060671642422676086,
          0.23819579184055328,
          -0.15122629702091217,
          -0.012501155026257038,
          -0.06802985817193985,
          -0.0624864399433136,
          -0.08284126967191696,
          -0.31935909390449524,
          -0.16072650253772736,
          -0.30142369866371155,
          -0.02887086011469364,
          0.08138556778430939,
          -0.08199329674243927,
          -0.10747343301773071,
          -0.16584931313991547,
          0.20858369767665863,
          -0.1517169177532196,
          -0.25156283378601074,
          0.3650965988636017,
          0.09722400456666946,
          0.010943240486085415,
          -0.06385444849729538,
          -0.014553514309227467,
          0.12986120581626892,
          0.04454831779003143,
          0.10024693608283997,
          -0.17165888845920563,
          -0.17429086565971375,
          -0.06635484844446182,
          0.06207914277911186,
          0.08382461965084076,
          -0.4620400667190552
        ],
        [
          0.24509811401367188,
          -0.17840322852134705,
          -0.25318118929862976,
          0.026014361530542374,
          -0.47794702649116516,
          0.17229850590229034,
          0.14309850335121155,
          0.051970452070236206,
          -0.0851251631975174,
          0.280500590801239,
          0.01888461597263813,
          0.08781510591506958,
          -0.21412470936775208,
          -0.06662888079881668,
          -0.1165471151471138,
          0.18665941059589386,
          -0.10956430435180664,
          0.014567462727427483,
          0.13139668107032776,
          0.14368513226509094,
          0.08426383137702942,
          0.10734539479017258,
          0.1969551295042038,
          0.07803399860858917,
          0.4016135036945343,
          0.2314177006483078,
          -0.18399174511432648,
          -0.08787225186824799,
          0.2087939977645874,
          0.057688578963279724,
          0.35239166021347046,
          -0.2691379487514496,
          0.04253864660859108,
          -0.1741892546415329,
          0.1374935507774353,
          -0.1491038203239441,
          -0.03961017727851868,
          -0.03478487208485603,
          0.018026849254965782,
          0.07902726531028748,
          -0.12666015326976776,
          0.09029678255319595,
          0.05782506242394447,
          0.08309955894947052,
          0.19117368757724762,
          -0.027738189324736595,
          -0.11691475659608841,
          -0.3788074254989624,
          0.08950191736221313,
          0.1396612524986267,
          -0.10235936939716339,
          -0.16600020229816437,
          0.008043153211474419,
          -0.15578825771808624,
          0.04571326822042465
        ],
        [
          -0.002185102552175522,
          0.012575400993227959,
          -0.13891492784023285,
          -0.1477733999490738,
          0.10517452657222748,
          -0.07136184722185135,
          -0.31087085604667664,
          -0.28515908122062683,
          -0.06786462664604187,
          0.011379450559616089,
          -0.04272977635264397,
          -0.015925941988825798,
          -0.01759113185107708,
          0.2899627089500427,
          0.18685288727283478,
          0.031358517706394196,
          0.08564738929271698,
          -0.17142273485660553,
          0.17961706221103668,
          -0.015799524262547493,
          0.12087152898311615,
          -0.4614850878715515,
          0.16458344459533691,
          -0.03178619593381882,
          -0.22999005019664764,
          0.10415346920490265,
          -0.23033267259597778,
          0.09829618036746979,
          -0.23932398855686188,
          0.11556209623813629,
          0.08966601639986038,
          0.17380459606647491,
          0.14583726227283478,
          -0.14460434019565582,
          -0.12717334926128387,
          0.11738438159227371,
          0.05301288142800331,
          0.022280076518654823,
          0.18906033039093018,
          0.1268150806427002,
          0.3616376519203186,
          0.1877128630876541,
          -0.06296344846487045,
          -0.22873124480247498,
          0.2117030918598175,
          -0.21018637716770172,
          0.032356079667806625,
          -0.3623994290828705,
          0.331683486700058,
          0.01900034211575985,
          -0.2190871238708496,
          -0.16614119708538055,
          0.17752231657505035,
          0.14773248136043549,
          0.12502478063106537
        ],
        [
          -0.07659350335597992,
          -0.16665905714035034,
          0.04003012925386429,
          0.1800144761800766,
          0.15201608836650848,
          0.005364014767110348,
          0.08106115460395813,
          0.25229784846305847,
          -0.18537327647209167,
          -0.32598990201950073,
          0.1363266259431839,
          -0.08328341692686081,
          0.3069242537021637,
          0.21977660059928894,
          0.18822269141674042,
          0.1430266797542572,
          0.016088953241705894,
          0.08345996588468552,
          0.19915372133255005,
          0.11142094433307648,
          -0.3438153564929962,
          -0.2724868655204773,
          0.17032741010189056,
          0.039630912244319916,
          0.08920799195766449,
          -0.1840163618326187,
          0.010118886828422546,
          0.24626518785953522,
          -0.2523218095302582,
          -0.06922677159309387,
          -0.12190156430006027,
          0.004502450581640005,
          -0.08945584297180176,
          -0.04158899933099747,
          -0.1521734744310379,
          -0.08328542113304138,
          0.05869140848517418,
          0.06635497510433197,
          0.1607784926891327,
          -0.15275660157203674,
          -0.08578061312437057,
          -0.22861763834953308,
          0.36440616846084595,
          0.21652771532535553,
          0.05613094940781593,
          0.19112949073314667,
          -0.15169048309326172,
          -0.39800789952278137,
          -0.07830994576215744,
          0.14221127331256866,
          -0.11213064938783646,
          -0.3017803430557251,
          -0.26078203320503235,
          -0.09845300018787384,
          0.04348811134696007
        ],
        [
          0.35536524653434753,
          -0.15183782577514648,
          -0.08936035633087158,
          -0.09727968275547028,
          0.0003027442726306617,
          0.26567402482032776,
          0.04621879383921623,
          -0.04574781283736229,
          0.10812234878540039,
          -0.004045732319355011,
          0.09296254813671112,
          0.21444043517112732,
          -0.0806141048669815,
          0.20183098316192627,
          0.11496437340974808,
          0.002144841942936182,
          -0.065772645175457,
          0.18271717429161072,
          -0.02469523809850216,
          0.133818581700325,
          0.1632266491651535,
          0.07969218492507935,
          -0.04115274176001549,
          0.3257124125957489,
          0.19234599173069,
          0.20617525279521942,
          0.09644513577222824,
          0.011206826195120811,
          -0.07308197021484375,
          0.29785287380218506,
          -0.12511679530143738,
          0.28131431341171265,
          -0.19895292818546295,
          0.1884288340806961,
          -0.08003683388233185,
          0.1526200771331787,
          0.10660995543003082,
          -0.0431063249707222,
          0.01592347025871277,
          -0.5462790131568909,
          0.18259796500205994,
          -0.0753537192940712,
          -0.25647202134132385,
          -0.07090527564287186,
          0.0013798854779452085,
          -0.16828419268131256,
          0.31759750843048096,
          0.07101979106664658,
          0.07333417236804962,
          0.021211761981248856,
          0.26532065868377686,
          -0.2437218427658081,
          -0.20920419692993164,
          -0.24730487167835236,
          0.14919452369213104
        ],
        [
          0.36477527022361755,
          0.043798111379146576,
          -0.03259767219424248,
          0.3195253312587738,
          0.05138332024216652,
          0.06594621390104294,
          -0.12830297648906708,
          0.03905640169978142,
          -0.18201562762260437,
          -0.016865011304616928,
          0.19843272864818573,
          -0.08180820196866989,
          -0.06308629363775253,
          -0.059975799173116684,
          -0.05355300009250641,
          0.21404039859771729,
          -0.013506988994777203,
          -0.2324487417936325,
          0.12642964720726013,
          -0.2956230044364929,
          -0.14589034020900726,
          0.10651545226573944,
          0.1139746606349945,
          -0.35368484258651733,
          -0.02117692306637764,
          0.15203897655010223,
          0.137496680021286,
          0.07738859951496124,
          -0.07496963441371918,
          -0.19479025900363922,
          -0.07468272745609283,
          -0.34552183747291565,
          -0.12096613645553589,
          0.10119586437940598,
          -0.025016671046614647,
          -0.15144209563732147,
          0.005922877229750156,
          0.025835949927568436,
          -0.19805361330509186,
          -0.13130027055740356,
          0.003197435522451997,
          -0.06378554552793503,
          -0.13181155920028687,
          0.04691990837454796,
          -0.10771812498569489,
          -0.2679803967475891,
          -0.030569400638341904,
          -0.17746585607528687,
          0.17266510426998138,
          -0.38471367955207825,
          -0.1759038269519806,
          0.20822881162166595,
          -0.14776486158370972,
          0.24716529250144958,
          0.3456852436065674
        ],
        [
          -0.18630026280879974,
          -0.1446831375360489,
          -0.02499566227197647,
          0.18743334710597992,
          0.14004047214984894,
          0.050995245575904846,
          -0.11346077919006348,
          0.024266816675662994,
          -0.08738495409488678,
          -0.04483020305633545,
          0.277235746383667,
          0.14669916033744812,
          -0.26850783824920654,
          0.19485314190387726,
          -0.07429049909114838,
          0.10165587812662125,
          0.19495247304439545,
          -0.07712752372026443,
          0.19977571070194244,
          0.13873249292373657,
          -0.3176078498363495,
          0.1714981347322464,
          -0.162971630692482,
          -0.1140642762184143,
          0.007127347867935896,
          0.12334223836660385,
          -0.34145963191986084,
          -0.14409558475017548,
          -0.05830253288149834,
          -0.26578423380851746,
          0.22871248424053192,
          0.08741234242916107,
          -0.06680604815483093,
          -0.05785984545946121,
          0.1821286380290985,
          0.07495047897100449,
          -0.011159821413457394,
          -0.12814384698867798,
          0.1936270147562027,
          0.08330956101417542,
          -0.3379689157009125,
          0.1428236961364746,
          -0.12110228836536407,
          0.10475440323352814,
          0.2860015332698822,
          -0.044519681483507156,
          0.4358185827732086,
          -0.028312034904956818,
          -0.3361756205558777,
          0.10947972536087036,
          0.37397804856300354,
          0.06406394392251968,
          -0.15189610421657562,
          0.2068556845188141,
          0.10718532651662827
        ],
        [
          -0.04185113683342934,
          0.040013544261455536,
          -0.3285137414932251,
          0.18983829021453857,
          -0.32823610305786133,
          -0.07486097514629364,
          0.06410340219736099,
          0.23674210906028748,
          0.027175970375537872,
          -0.2524406611919403,
          0.05777610465884209,
          0.07069450616836548,
          -0.05383672937750816,
          0.29879000782966614,
          0.027764437720179558,
          -0.08567051589488983,
          -0.13991154730319977,
          0.09701236337423325,
          0.2374962717294693,
          -0.349868506193161,
          0.23681432008743286,
          0.2567819654941559,
          -0.25808313488960266,
          0.000341903098160401,
          -0.19369255006313324,
          -0.37093493342399597,
          0.11473750323057175,
          -0.15713398158550262,
          0.04844645783305168,
          -0.002499351743608713,
          -0.1925770491361618,
          0.09093484282493591,
          0.12104368209838867,
          0.14265111088752747,
          0.056610457599163055,
          -0.10229885578155518,
          -0.27309414744377136,
          0.2944241166114807,
          0.1265459507703781,
          0.360431045293808,
          -0.08473598957061768,
          0.158303365111351,
          -0.03261788934469223,
          0.034931786358356476,
          -0.1584567278623581,
          0.12738288938999176,
          0.2722015976905823,
          -0.15981806814670563,
          0.2782743573188782,
          0.1688588708639145,
          -0.037890203297138214,
          -0.08573617041110992,
          -0.19755545258522034,
          -0.13775669038295746,
          0.03895055502653122
        ],
        [
          -0.12480641156435013,
          0.11297116428613663,
          -0.17575335502624512,
          0.1321333646774292,
          -0.21266958117485046,
          0.021248556673526764,
          -0.018338197842240334,
          -0.16125953197479248,
          0.25926125049591064,
          0.0775882825255394,
          0.35929760336875916,
          -0.13828597962856293,
          -0.18394172191619873,
          0.2444458156824112,
          -0.23323071002960205,
          -0.13713876903057098,
          0.04656590148806572,
          0.04663051664829254,
          -0.23026905953884125,
          -0.021700246259570122,
          -0.2511548399925232,
          0.17408259212970734,
          0.032781802117824554,
          0.3254444897174835,
          0.10236290097236633,
          -0.3082877993583679,
          0.11040272563695908,
          0.028871165588498116,
          -0.21670787036418915,
          0.15559591352939606,
          0.22501301765441895,
          0.13193683326244354,
          -0.29062333703041077,
          0.11522147804498672,
          -0.09266650676727295,
          0.11066552251577377,
          0.25537264347076416,
          0.14150182902812958,
          -0.016163639724254608,
          -0.05790970101952553,
          0.06328381597995758,
          -0.0379331074655056,
          -0.2844037711620331,
          0.029850948601961136,
          -0.05033831670880318,
          0.07669109106063843,
          -0.12464945763349533,
          -0.26647233963012695,
          -0.06370769441127777,
          -0.2163640260696411,
          -0.03633216768503189,
          0.1715385466814041,
          0.12321614474058151,
          0.24460697174072266,
          -0.2513512969017029
        ],
        [
          -0.20538683235645294,
          -0.44595035910606384,
          0.12055335193872452,
          0.15016506612300873,
          -0.22165343165397644,
          0.15245793759822845,
          0.11226476728916168,
          -0.11340370774269104,
          0.017178473994135857,
          -0.17692440748214722,
          0.08870191127061844,
          0.024573907256126404,
          -0.017495986074209213,
          0.09229366481304169,
          0.32661017775535583,
          -0.04519730433821678,
          0.2362973541021347,
          0.2195030003786087,
          0.19822297990322113,
          -0.08295221626758575,
          0.08896757662296295,
          -0.24237656593322754,
          -0.051681552082300186,
          -0.060851190239191055,
          0.2093120813369751,
          0.13342402875423431,
          0.29361870884895325,
          -0.04824810102581978,
          -0.2179417908191681,
          0.2550197243690491,
          0.286104291677475,
          -0.49521371722221375,
          0.08239897340536118,
          -0.07719552516937256,
          0.10920660197734833,
          -0.030079782009124756,
          -0.13738971948623657,
          0.03479909896850586,
          -0.03817867860198021,
          0.02300286293029785,
          0.23848633468151093,
          0.26216185092926025,
          -0.1292089819908142,
          -0.1472925841808319,
          -0.1146877184510231,
          0.21967913210391998,
          -0.023854374885559082,
          0.14134597778320312,
          -0.08819826692342758,
          -0.11345268040895462,
          -0.007041909731924534,
          0.1772966831922531,
          0.21695411205291748,
          0.13574019074440002,
          -0.1093946173787117
        ],
        [
          -0.2991059422492981,
          0.09013121575117111,
          -0.12639234960079193,
          -0.08332372456789017,
          -0.1662379801273346,
          0.10525534301996231,
          0.18366798758506775,
          -0.04616028442978859,
          -0.13832978904247284,
          0.31462380290031433,
          0.031332988291978836,
          0.1761169582605362,
          0.14930130541324615,
          0.252559632062912,
          -0.055924709886312485,
          -0.21703073382377625,
          -0.0051264953799545765,
          0.06208742782473564,
          -0.10889334231615067,
          0.0071443296037614346,
          0.14024041593074799,
          -0.0649988055229187,
          0.13315513730049133,
          0.14328138530254364,
          -0.38869819045066833,
          0.08061292767524719,
          -0.11560821533203125,
          0.46233922243118286,
          -0.23087912797927856,
          -0.22430558502674103,
          -0.039444055408239365,
          -0.31162071228027344,
          -0.29861998558044434,
          -0.09515377879142761,
          0.05857288837432861,
          -0.12417512387037277,
          0.07840584218502045,
          0.35823553800582886,
          -0.21625548601150513,
          -0.05269415304064751,
          -0.10108646750450134,
          0.12809360027313232,
          -0.029877064749598503,
          0.19207461178302765,
          0.0061563607305288315,
          -0.1731203943490982,
          -0.0714154914021492,
          -0.04989799112081528,
          -0.279179185628891,
          0.037352826446294785,
          0.06434382498264313,
          0.19372975826263428,
          -0.025154395028948784,
          -0.13813215494155884,
          0.02783438377082348
        ],
        [
          0.0411347970366478,
          -0.366191029548645,
          0.05947383493185043,
          -0.20743539929389954,
          0.348462849855423,
          -0.01916772499680519,
          0.10638794302940369,
          -0.0058442410081624985,
          0.1514948457479477,
          -0.10067062079906464,
          -0.00707919429987669,
          0.16950087249279022,
          -0.3475233018398285,
          -0.12155022472143173,
          -0.07958032935857773,
          -0.2701322138309479,
          -0.15733782947063446,
          0.028989732265472412,
          -0.01182374358177185,
          0.16552087664604187,
          0.3517453968524933,
          0.0448852963745594,
          0.17394931614398956,
          -0.11740156263113022,
          -0.25108858942985535,
          0.017912540584802628,
          0.03482416272163391,
          0.12844516336917877,
          0.1285412758588791,
          -0.03751102834939957,
          -0.015208054333925247,
          -0.0832442045211792,
          -0.023333704099059105,
          -0.13820937275886536,
          -0.12844301760196686,
          -0.061218976974487305,
          0.27351051568984985,
          0.2744274139404297,
          0.05065705254673958,
          0.05505799502134323,
          -0.29616624116897583,
          0.012255252338945866,
          0.23721449077129364,
          -0.10789375007152557,
          0.03992803022265434,
          0.2833736836910248,
          0.07048947364091873,
          -0.37616634368896484,
          0.2608165740966797,
          -0.27566424012184143,
          0.3223617970943451,
          0.03641102463006973,
          0.03675868362188339,
          0.03257185220718384,
          -0.27130281925201416
        ],
        [
          0.1299857199192047,
          -0.03212369978427887,
          -0.019454453140497208,
          -0.17622511088848114,
          0.02193240448832512,
          0.007608674932271242,
          -0.2824188768863678,
          0.10142870247364044,
          -0.13460321724414825,
          -0.25791922211647034,
          0.0887666866183281,
          0.11330745369195938,
          0.018111873418092728,
          0.05963052064180374,
          0.09091958403587341,
          -0.4397936761379242,
          0.1552724540233612,
          -0.18255500495433807,
          0.10512889176607132,
          0.3470066785812378,
          0.011554454453289509,
          0.028893593698740005,
          -0.14673496782779694,
          0.19797495007514954,
          0.1842844933271408,
          0.06175568699836731,
          0.24440890550613403,
          0.2710409164428711,
          0.13478022813796997,
          -0.08782913535833359,
          -0.09720080345869064,
          0.14462898671627045,
          0.14936716854572296,
          0.24168914556503296,
          0.16505976021289825,
          0.0834713876247406,
          -0.22216637432575226,
          0.0786624550819397,
          0.06959808617830276,
          0.07859823107719421,
          -0.20475180447101593,
          0.20539496839046478,
          0.07270842790603638,
          0.33681952953338623,
          -0.11273395270109177,
          -0.1677986979484558,
          -0.0016231314511969686,
          -0.03419414535164833,
          -0.03302682563662529,
          -0.2728491723537445,
          -0.017926333472132683,
          0.13227342069149017,
          0.5360292196273804,
          0.06708461791276932,
          0.36804747581481934
        ],
        [
          -0.22171372175216675,
          0.02499847300350666,
          0.36291298270225525,
          -0.3653316795825958,
          -0.11598573625087738,
          -0.17502063512802124,
          0.011001215316355228,
          -0.07437055557966232,
          0.21598000824451447,
          -0.0501202829182148,
          -0.11301151663064957,
          -0.16151432693004608,
          -0.00014026829740032554,
          0.31151917576789856,
          0.12002360820770264,
          0.09129978716373444,
          -0.0690515860915184,
          -0.3796963095664978,
          -0.2029135674238205,
          -0.15952464938163757,
          -0.16586405038833618,
          0.007463361602276564,
          -0.051820192486047745,
          0.012857400812208652,
          0.1972101628780365,
          0.11046924442052841,
          -0.030334344133734703,
          0.17922042310237885,
          -0.10313716530799866,
          0.11687794327735901,
          0.4651953876018524,
          -0.05460420250892639,
          0.04403972253203392,
          -0.07452905178070068,
          0.028301378712058067,
          -0.06658841669559479,
          -0.19787614047527313,
          -0.149645134806633,
          -0.1232830286026001,
          0.12667837738990784,
          -0.1839563548564911,
          -0.2512488067150116,
          -0.06745194643735886,
          0.27948328852653503,
          -0.10990643501281738,
          0.07885555922985077,
          0.1556551456451416,
          -0.12561047077178955,
          0.45692989230155945,
          -0.11549326777458191,
          0.28495368361473083,
          -0.004507351666688919,
          -0.11563623696565628,
          -0.2833838164806366,
          0.12770713865756989
        ],
        [
          0.08954288810491562,
          -0.06643614172935486,
          -0.10809750109910965,
          -0.13224446773529053,
          0.23854057490825653,
          0.2860584855079651,
          -0.018096596002578735,
          -0.14238418638706207,
          0.2335357517004013,
          -0.011162434704601765,
          0.07225306332111359,
          -0.40794482827186584,
          -0.03702127933502197,
          -0.11308672279119492,
          -0.06069416180253029,
          0.07268942892551422,
          -0.19633622467517853,
          0.008915157057344913,
          -0.0974334105849266,
          -0.23815768957138062,
          -0.055672578513622284,
          -0.0955110415816307,
          -0.15840408205986023,
          0.28188732266426086,
          -0.16872638463974,
          -0.006789222825318575,
          -0.27194711565971375,
          0.1725340485572815,
          -0.1388234943151474,
          0.08667154610157013,
          0.11525427550077438,
          -0.1604573279619217,
          -0.016167866066098213,
          0.5963419079780579,
          0.008877982385456562,
          -0.3248758912086487,
          -0.18715693056583405,
          -0.01722957380115986,
          0.01395529042929411,
          0.4021621346473694,
          0.019744200631976128,
          0.1888151615858078,
          0.19696851074695587,
          -0.156865656375885,
          0.19177164137363434,
          -0.18940241634845734,
          0.13586382567882538,
          0.09639879316091537,
          -0.20868144929409027,
          -0.1430538296699524,
          -0.0175983514636755,
          -0.2183769941329956,
          -0.019516734406352043,
          -0.07859142124652863,
          -0.003835656214505434
        ],
        [
          -0.28703194856643677,
          -0.12663893401622772,
          0.10515155643224716,
          0.01611698791384697,
          -0.1175275668501854,
          -0.21078146994113922,
          -0.14124587178230286,
          -0.04076356813311577,
          0.12214050441980362,
          -0.14419351518154144,
          0.1760922521352768,
          0.20545552670955658,
          0.10275645554065704,
          -0.09098955988883972,
          -0.22015804052352905,
          0.240182563662529,
          -0.025421371683478355,
          0.3350176215171814,
          0.02859274297952652,
          -0.20610438287258148,
          -0.09324896335601807,
          -0.08775928616523743,
          0.09650368243455887,
          -0.08592956513166428,
          -0.1512947827577591,
          0.3224908113479614,
          -0.16796116530895233,
          0.13228018581867218,
          -0.0743851363658905,
          -0.05793803557753563,
          -0.26686787605285645,
          0.27449503540992737,
          0.09928590059280396,
          0.07297145575284958,
          0.003418769221752882,
          -0.2654719948768616,
          0.10983984917402267,
          -0.23027056455612183,
          -0.01661797985434532,
          0.032522052526474,
          0.11999563127756119,
          -0.12093853205442429,
          -0.33615410327911377,
          0.10164612531661987,
          0.010684574954211712,
          0.28595754504203796,
          0.13971766829490662,
          -0.09799818694591522,
          -0.1031925231218338,
          0.07510904967784882,
          0.13669773936271667,
          -0.01895097643136978,
          0.45556890964508057,
          -0.10283134877681732,
          0.12091206759214401
        ],
        [
          -0.06207019090652466,
          0.049934614449739456,
          -0.41019710898399353,
          0.024289896711707115,
          0.20653122663497925,
          0.13462865352630615,
          -0.3413750231266022,
          0.11521650850772858,
          0.010846787132322788,
          -0.048303887248039246,
          0.19121526181697845,
          0.3759317696094513,
          0.04109480604529381,
          -0.2038351595401764,
          0.06281471252441406,
          0.062362492084503174,
          -0.16624850034713745,
          0.17137980461120605,
          -0.02588873915374279,
          -0.06128523126244545,
          -0.1253097951412201,
          -0.34066900610923767,
          0.045970331877470016,
          0.12022320181131363,
          -0.05866802856326103,
          -0.08602210134267807,
          -0.2585354745388031,
          -0.07153532654047012,
          0.04448455199599266,
          0.314973384141922,
          0.2631259858608246,
          -0.05408940836787224,
          -0.07431289553642273,
          -0.10995616763830185,
          0.08912099897861481,
          0.02266078069806099,
          -0.11802946031093597,
          0.04279860854148865,
          -0.01935584843158722,
          -0.13844257593154907,
          -0.040545009076595306,
          0.31091755628585815,
          0.10569629073143005,
          0.18992669880390167,
          -0.3085823953151703,
          0.3691575527191162,
          -0.1384994238615036,
          0.22153131663799286,
          0.07791133224964142,
          -0.10085245966911316,
          0.08130600303411484,
          0.0006276583881117404,
          -0.1996118724346161,
          -0.08480923622846603,
          0.2014063149690628
        ],
        [
          -0.36522141098976135,
          0.1929721236228943,
          -0.1995600312948227,
          0.1571197658777237,
          0.19142167270183563,
          0.048027943819761276,
          0.0257479939609766,
          -0.25377511978149414,
          -0.08484585583209991,
          -0.15539667010307312,
          -0.12413837015628815,
          0.16170887649059296,
          -0.29587987065315247,
          0.028405150398612022,
          0.1873321682214737,
          -0.14374370872974396,
          -0.1439654678106308,
          -0.2892996370792389,
          0.11763686686754227,
          0.20528081059455872,
          -0.46968990564346313,
          0.10156930238008499,
          0.03254394978284836,
          0.08898962289094925,
          0.09863321483135223,
          -0.13065946102142334,
          -0.004885378759354353,
          0.13101564347743988,
          0.43266168236732483,
          -0.016172856092453003,
          -0.09877166897058487,
          -0.2842582166194916,
          0.1356547772884369,
          -0.03552399203181267,
          0.12760935723781586,
          -0.0979008600115776,
          0.036383334547281265,
          -0.014077601954340935,
          -0.1588464230298996,
          -0.01838192529976368,
          0.15200196206569672,
          -0.0885230302810669,
          -0.12412752956151962,
          -0.4327636659145355,
          -0.22245077788829803,
          -0.07272005081176758,
          -0.0052764262072741985,
          -0.08073440939188004,
          -0.09417407214641571,
          0.0884401872754097,
          0.09700030088424683,
          -0.40781381726264954,
          0.15555508434772491,
          -0.06856022030115128,
          -0.11177297681570053
        ],
        [
          -0.28205177187919617,
          0.31852906942367554,
          -0.11391206085681915,
          -0.03660079836845398,
          -0.27779364585876465,
          0.4089544415473938,
          -0.25324034690856934,
          -0.22944259643554688,
          -0.06621517986059189,
          -0.005724878516048193,
          -0.10962609201669693,
          0.2705949544906616,
          0.21135585010051727,
          -0.1022682711482048,
          -0.23838265240192413,
          -0.10778751224279404,
          0.06363632529973984,
          -0.03033323399722576,
          -0.031138841062784195,
          -0.01634662225842476,
          -0.054963577538728714,
          -0.262656033039093,
          0.05554705485701561,
          0.02728000283241272,
          0.13079388439655304,
          0.21299023926258087,
          0.19175897538661957,
          -0.16668659448623657,
          -0.047173816710710526,
          0.035995665937662125,
          -0.006554052233695984,
          0.17770183086395264,
          0.15071669220924377,
          0.14919254183769226,
          0.0909736156463623,
          -0.0011711850529536605,
          0.17000706493854523,
          0.2581420838832855,
          -0.13259606063365936,
          0.1477688103914261,
          -0.18353745341300964,
          -0.2173069268465042,
          0.18816855549812317,
          0.12219370901584625,
          -0.004999873228371143,
          -0.05454328656196594,
          0.0757623240351677,
          0.05058766156435013,
          0.28735440969467163,
          0.0022002172190696,
          0.06451717019081116,
          -0.16881528496742249,
          -0.24658872187137604,
          0.48322179913520813,
          -0.11916927993297577
        ],
        [
          -0.17569302022457123,
          0.15716403722763062,
          -0.16469494998455048,
          -0.010547805577516556,
          0.18130919337272644,
          0.09347937256097794,
          0.41420257091522217,
          -0.09942646324634552,
          -0.054939448833465576,
          0.38672930002212524,
          0.20206597447395325,
          -0.03389323875308037,
          -0.04697446525096893,
          -0.14198482036590576,
          -0.002908824011683464,
          -0.022519955411553383,
          -0.10870606452226639,
          0.011875838041305542,
          -0.08797070384025574,
          -0.19340555369853973,
          0.05131726711988449,
          -0.36028799414634705,
          0.06377971917390823,
          -0.18441884219646454,
          0.2962532639503479,
          -0.08568874001502991,
          0.3107740879058838,
          0.10396789759397507,
          0.2005968540906906,
          -0.13439296185970306,
          -0.12692661583423615,
          0.42122766375541687,
          -0.05219301953911781,
          -0.13066363334655762,
          0.2941894233226776,
          -0.09791933000087738,
          -0.24533818662166595,
          -0.03407331928610802,
          0.008568787947297096,
          0.17321881651878357,
          0.05462705343961716,
          0.0480530820786953,
          -0.21798665821552277,
          -0.20169268548488617,
          0.17879875004291534,
          0.19978490471839905,
          0.03620884567499161,
          -0.20667238533496857,
          0.04080546274781227,
          -0.10543904453516006,
          0.08127708733081818,
          0.14172765612602234,
          -0.08632652461528778,
          -0.02331559732556343,
          0.2918011248111725
        ],
        [
          0.04796939343214035,
          -0.3199567496776581,
          -0.09843314439058304,
          -0.052131276577711105,
          -0.03045886941254139,
          -0.09461429715156555,
          -0.08671292662620544,
          0.18440796434879303,
          0.08087639510631561,
          0.11289111524820328,
          -0.4130885601043701,
          -0.024862373247742653,
          0.4933727979660034,
          -0.1766211986541748,
          0.18645088374614716,
          -0.20503133535385132,
          -0.2901594042778015,
          -0.17988023161888123,
          0.13531243801116943,
          -0.05710936337709427,
          -0.140623539686203,
          0.16531260311603546,
          0.06521303206682205,
          -0.1426752358675003,
          0.04136592149734497,
          0.17657572031021118,
          -0.05262352526187897,
          -0.046009961515665054,
          -0.06396801769733429,
          -0.011765098199248314,
          0.0017542365239933133,
          0.07149560004472733,
          -0.03904790058732033,
          0.035261381417512894,
          -0.02135523594915867,
          -0.06668222695589066,
          0.20436207950115204,
          0.17493341863155365,
          0.040139637887477875,
          0.26281461119651794,
          0.1711936891078949,
          0.20719371736049652,
          -0.3883420526981354,
          -0.08396422117948532,
          -0.19326990842819214,
          0.058413852006196976,
          -0.021013271063566208,
          -0.026601241901516914,
          -0.1537795513868332,
          -0.029870914295315742,
          0.35843777656555176,
          0.07437841594219208,
          -0.17617933452129364,
          0.2041759192943573,
          0.0021243675146251917
        ],
        [
          -0.05392808839678764,
          -0.13398821651935577,
          0.39695456624031067,
          -0.18914887309074402,
          0.05175648629665375,
          0.08488363027572632,
          -0.03752921149134636,
          -0.24055339395999908,
          0.03897020220756531,
          0.23016716539859772,
          0.13274356722831726,
          0.10358911007642746,
          -0.19269758462905884,
          0.38916507363319397,
          -0.07027646899223328,
          -0.22119450569152832,
          -0.14256325364112854,
          -0.009727329947054386,
          0.11851457506418228,
          -0.30931323766708374,
          -0.20354139804840088,
          -0.07512006163597107,
          -0.09802157431840897,
          0.09245503693819046,
          -0.2877117097377777,
          0.14965742826461792,
          0.2572861909866333,
          -0.30668187141418457,
          0.2554987668991089,
          0.0034008349757641554,
          -0.15843941271305084,
          -0.09340211749076843,
          0.09695878624916077,
          -0.1298329383134842,
          0.12534579634666443,
          0.02519352175295353,
          0.06260443478822708,
          0.07412891089916229,
          0.17897795140743256,
          -0.09763171523809433,
          0.0932387188076973,
          0.14965952932834625,
          0.11962118744850159,
          0.1578100472688675,
          0.13035297393798828,
          -0.031105220317840576,
          -0.006429676897823811,
          0.06698217988014221,
          -0.06831824034452438,
          0.32439643144607544,
          -0.2854357957839966,
          0.10495229065418243,
          -0.08500505238771439,
          -0.07076556235551834,
          0.04294651746749878
        ],
        [
          0.15156200528144836,
          0.25022077560424805,
          0.19937533140182495,
          0.16588936746120453,
          -0.07149656862020493,
          -0.07727183401584625,
          -0.19169345498085022,
          0.1132257804274559,
          0.029356161132454872,
          0.050373997539281845,
          0.1862153708934784,
          0.2140853852033615,
          0.026713743805885315,
          -0.20311729609966278,
          0.4297333061695099,
          0.013063184916973114,
          0.11345228552818298,
          -0.1816026270389557,
          0.05808667838573456,
          0.01747659407556057,
          -0.014790637418627739,
          0.08945935219526291,
          -0.006578688509762287,
          0.09090983867645264,
          -0.3676833212375641,
          -0.026710573583841324,
          0.06707265228033066,
          -0.3640762269496918,
          -0.10314667224884033,
          0.05360757187008858,
          0.2621658444404602,
          0.14758148789405823,
          0.20853187143802643,
          -0.043098174035549164,
          0.10132420808076859,
          -0.31616660952568054,
          0.1473783254623413,
          0.2375469207763672,
          -0.17600218951702118,
          -0.019897684454917908,
          0.0012262467062100768,
          -0.1076403483748436,
          -0.18092304468154907,
          -0.009187520481646061,
          -0.0421142503619194,
          -0.10582322627305984,
          0.05316857248544693,
          -0.17987021803855896,
          -0.027219444513320923,
          -0.01931607350707054,
          -0.05840473994612694,
          0.049049004912376404,
          0.047941502183675766,
          -0.3617374002933502,
          -0.12058081477880478
        ],
        [
          -0.021837737411260605,
          -0.11524490267038345,
          0.13491354882717133,
          0.22076131403446198,
          -0.033581722527742386,
          0.271329402923584,
          -0.25918111205101013,
          0.14986048638820648,
          0.20680943131446838,
          0.17801791429519653,
          -0.024087201803922653,
          0.17789797484874725,
          -0.006809857673943043,
          0.06755431741476059,
          -0.15663090348243713,
          -0.3527211546897888,
          -0.11218726634979248,
          -0.15167732536792755,
          0.02112308330833912,
          0.0449497289955616,
          0.12211810797452927,
          -0.17601433396339417,
          -0.05093561112880707,
          -0.28274449706077576,
          -0.12333604693412781,
          -0.10238783061504364,
          0.3568064570426941,
          -0.09835395216941833,
          -0.1669679433107376,
          0.06538226455450058,
          0.04073658213019371,
          -0.15522940456867218,
          -0.22321049869060516,
          -0.0021098873112350702,
          -0.052696894854307175,
          -0.19880247116088867,
          0.1223701611161232,
          -0.31817105412483215,
          0.16465534269809723,
          0.13346995413303375,
          0.09166715294122696,
          -0.2967565655708313,
          -0.05121612921357155,
          -0.006571888457983732,
          -0.012891948223114014,
          -0.1645824909210205,
          0.03056754171848297,
          -0.09662498533725739,
          -0.24822907149791718,
          -0.12124106287956238,
          0.12880752980709076,
          -0.39881885051727295,
          -0.08159859478473663,
          -0.16427595913410187,
          0.16992764174938202
        ],
        [
          0.02917642705142498,
          -0.01602514274418354,
          0.3287540376186371,
          0.21028615534305573,
          0.13516107201576233,
          0.1292625218629837,
          -0.18305714428424835,
          -0.023108122870326042,
          0.08813250809907913,
          0.037773486226797104,
          -0.16579435765743256,
          0.11563066393136978,
          -0.039382483810186386,
          -0.1851430982351303,
          0.0895976647734642,
          -0.021553661674261093,
          -0.14733324944972992,
          -0.11661351472139359,
          0.11595042049884796,
          -0.048671796917915344,
          0.35506242513656616,
          0.11105906218290329,
          -0.04523221403360367,
          0.4172708988189697,
          -0.004510967526584864,
          -0.4128178358078003,
          -0.15335732698440552,
          0.20427314937114716,
          -0.03653271496295929,
          -0.12268143892288208,
          0.25224027037620544,
          0.055146459490060806,
          0.024346204474568367,
          -0.17596791684627533,
          -0.022675663232803345,
          -0.15311110019683838,
          -0.29005491733551025,
          0.0011688378872349858,
          0.11902967840433121,
          -0.18140161037445068,
          0.031844958662986755,
          -0.13208994269371033,
          -0.2691989243030548,
          0.043166473507881165,
          0.277130126953125,
          0.08156777173280716,
          -0.15464307367801666,
          -0.03741367906332016,
          0.02866467833518982,
          0.33562272787094116,
          0.031126104295253754,
          0.04586034268140793,
          -0.03004896081984043,
          0.5748989582061768,
          0.1047726646065712
        ],
        [
          -0.030448446050286293,
          0.033629219979047775,
          0.230269655585289,
          0.22730956971645355,
          0.21329748630523682,
          0.10024862736463547,
          -0.12659288942813873,
          -0.12264230102300644,
          0.12793652713298798,
          0.3576032817363739,
          -0.019644100219011307,
          0.03755292296409607,
          -0.14387664198875427,
          -0.10429243743419647,
          0.03129157796502113,
          -0.051123376935720444,
          -0.0786202996969223,
          0.5274063944816589,
          0.12477223575115204,
          0.21955972909927368,
          -0.06490384787321091,
          0.03338222950696945,
          -0.0014772183494642377,
          -0.03526092693209648,
          -0.0017216018168255687,
          0.1189047172665596,
          -0.16055327653884888,
          0.09372562170028687,
          -0.1316525638103485,
          -0.004218348767608404,
          -0.11254559457302094,
          -0.21299627423286438,
          0.15705567598342896,
          0.18845981359481812,
          -0.0340539775788784,
          0.13044925034046173,
          -0.29742351174354553,
          0.26007160544395447,
          -0.10012292116880417,
          0.21057885885238647,
          -0.24513883888721466,
          -0.46921250224113464,
          -0.27728408575057983,
          0.07224266976118088,
          -0.15316693484783173,
          0.10862717032432556,
          -0.07105367630720139,
          0.09023838490247726,
          0.22025564312934875,
          0.022663379088044167,
          -0.195814847946167,
          -0.07622235268354416,
          0.10027965903282166,
          -0.13772083818912506,
          0.09549304097890854
        ],
        [
          -0.2609524130821228,
          0.014685899950563908,
          0.0035212086513638496,
          -0.14396215975284576,
          0.05612597241997719,
          0.12874120473861694,
          0.14191702008247375,
          0.22967886924743652,
          -0.1844359189271927,
          0.24330411851406097,
          -0.43018674850463867,
          0.13961520791053772,
          -0.18980391323566437,
          -0.18182507157325745,
          -0.06474234163761139,
          -0.11242135614156723,
          0.14320588111877441,
          0.017670758068561554,
          0.05990574136376381,
          0.05180657282471657,
          -0.00205882522277534,
          0.07807298749685287,
          -0.25378045439720154,
          -0.1606457382440567,
          -0.12556937336921692,
          -0.03362436220049858,
          -0.07117971777915955,
          -0.08763270080089569,
          -0.27593645453453064,
          -0.25806745886802673,
          0.318450391292572,
          0.14534492790699005,
          -0.1719938963651657,
          0.07778951525688171,
          0.07616405189037323,
          0.3243584632873535,
          -0.2627665400505066,
          -0.019569603726267815,
          -0.1392330676317215,
          -0.11536531895399094,
          0.4274967610836029,
          0.054931946098804474,
          0.18335503339767456,
          0.14990819990634918,
          -0.10578636080026627,
          0.03376167267560959,
          0.08985728025436401,
          -0.11697238683700562,
          -0.06161710247397423,
          -0.06041879579424858,
          -0.11329495161771774,
          -0.15680508315563202,
          0.01831180229783058,
          -0.1708819717168808,
          0.0987347811460495
        ],
        [
          -0.19431538879871368,
          -0.12300753593444824,
          0.2689823806285858,
          -0.042995356023311615,
          -0.3315911889076233,
          -0.24752284586429596,
          -0.001489560934714973,
          -0.10066646337509155,
          -0.1493779867887497,
          -0.28979578614234924,
          0.02655525878071785,
          -0.05232355371117592,
          -0.048402637243270874,
          -0.41318556666374207,
          0.030264604836702347,
          -0.06956285238265991,
          -0.05610153079032898,
          0.16473808884620667,
          -0.13425658643245697,
          0.06179031729698181,
          -0.14353981614112854,
          -0.1650117039680481,
          -0.31983691453933716,
          0.05244051292538643,
          -0.05077599734067917,
          0.17878742516040802,
          -0.07120107114315033,
          -0.08238936960697174,
          0.1873270869255066,
          0.028648845851421356,
          -0.00885100569576025,
          0.08106046915054321,
          -0.4438140392303467,
          0.19205176830291748,
          -0.1373848170042038,
          0.13811878859996796,
          -0.2551024258136749,
          0.22193512320518494,
          -0.015917116776108742,
          -0.07498496025800705,
          -0.035036105662584305,
          0.1167815551161766,
          -0.170732319355011,
          -0.14411450922489166,
          -0.07727409154176712,
          -0.24579349160194397,
          -0.09284737706184387,
          -0.5037100315093994,
          0.003943919204175472,
          0.08830316364765167,
          -0.10206516087055206,
          -0.08352354913949966,
          -0.16974197328090668,
          0.05437857657670975,
          -0.06362650543451309
        ],
        [
          0.005362911149859428,
          0.3745194971561432,
          0.14067578315734863,
          -0.04368331655859947,
          -0.224835604429245,
          0.23750808835029602,
          0.14938092231750488,
          0.002292460761964321,
          -0.127741739153862,
          -0.23433852195739746,
          -0.2833901345729828,
          0.13619785010814667,
          -0.24899595975875854,
          0.0526287816464901,
          -0.002056583994999528,
          0.01219493430107832,
          0.19578306376934052,
          -0.049378570169210434,
          0.0699000358581543,
          -0.3722819685935974,
          0.09082592278718948,
          0.04715942218899727,
          -0.24764031171798706,
          0.20103496313095093,
          0.12752684950828552,
          0.19525288045406342,
          -0.41012462973594666,
          -0.02191552147269249,
          -0.04457959160208702,
          -0.07208450138568878,
          -0.2130335569381714,
          -0.09726913273334503,
          0.21440261602401733,
          -0.15119265019893646,
          -0.2792215943336487,
          -0.10272309929132462,
          0.2261679768562317,
          0.12592241168022156,
          0.07410693913698196,
          -0.041831374168395996,
          0.07252669334411621,
          -0.0600135438144207,
          0.020695606246590614,
          -0.07779393345117569,
          0.07077206671237946,
          0.2695256769657135,
          -0.07593106478452682,
          0.008286859840154648,
          -0.2137874811887741,
          -0.4299367666244507,
          0.09340234100818634,
          -0.03244062140583992,
          -0.021854287013411522,
          -0.03594876453280449,
          0.1463727056980133
        ],
        [
          -0.24650512635707855,
          0.07760019600391388,
          -0.1044480949640274,
          -0.019393593072891235,
          0.04714081063866615,
          0.016947468742728233,
          -0.1654994636774063,
          0.22951431572437286,
          0.2884913384914398,
          -0.052063584327697754,
          0.0029686829075217247,
          -0.12398889660835266,
          -0.038963522762060165,
          0.22976388037204742,
          0.2685309648513794,
          -0.11143174767494202,
          -0.13621097803115845,
          0.24032175540924072,
          -0.18894287943840027,
          0.14666050672531128,
          0.22164380550384521,
          0.13572117686271667,
          0.05834183841943741,
          0.00867449026554823,
          0.05033966526389122,
          0.27418532967567444,
          -0.07429007440805435,
          -0.09791000187397003,
          -0.08634564280509949,
          -0.229306161403656,
          0.0861504077911377,
          0.32473593950271606,
          0.189767524600029,
          -0.20614038407802582,
          0.1940501481294632,
          -0.25151556730270386,
          -0.09503895789384842,
          -0.14791227877140045,
          -0.07037638872861862,
          -0.19544796645641327,
          -0.23863054811954498,
          0.09579656273126602,
          -0.001573112327605486,
          -0.3053772747516632,
          -0.07835283875465393,
          -0.10185499489307404,
          -0.16071686148643494,
          -0.15556922554969788,
          -0.22810645401477814,
          -0.3608173429965973,
          -0.4455716907978058,
          -0.0443481020629406,
          -0.18065041303634644,
          0.023645635694265366,
          -0.007289902772754431
        ],
        [
          0.06735541671514511,
          -0.012272108346223831,
          0.01414064597338438,
          -0.1319810152053833,
          -0.31348350644111633,
          0.3364887237548828,
          -0.08425488322973251,
          -0.011669933795928955,
          -0.06800780445337296,
          -0.10857880860567093,
          -0.04673176258802414,
          -0.10882629454135895,
          -0.14759856462478638,
          0.08197395503520966,
          0.4242916405200958,
          0.10788606852293015,
          -0.3122998774051666,
          -0.08328603208065033,
          -0.15713244676589966,
          0.2474319338798523,
          -0.15840712189674377,
          0.2666771709918976,
          0.3908849358558655,
          -0.1864764243364334,
          -0.3495718836784363,
          0.20968933403491974,
          0.006123589817434549,
          0.008051471784710884,
          0.11128131300210953,
          0.03899800404906273,
          -0.1718217432498932,
          0.08674586564302444,
          -0.21236668527126312,
          0.13796447217464447,
          0.06828941404819489,
          0.09934622794389725,
          -0.15768252313137054,
          -0.04915776476264,
          -0.24911293387413025,
          0.09467467665672302,
          0.0949622392654419,
          0.019521255046129227,
          0.0005563028971664608,
          0.1761484146118164,
          0.30683329701423645,
          0.4295448660850525,
          0.10840503126382828,
          0.11056142300367355,
          -0.023916661739349365,
          0.03408569097518921,
          -0.1642686277627945,
          -0.06807862967252731,
          -0.0006745457649230957,
          0.24446560442447662,
          -0.06033029034733772
        ],
        [
          0.09477679431438446,
          -0.27783381938934326,
          0.1014244481921196,
          0.019125495105981827,
          -0.07977775484323502,
          0.027755044400691986,
          0.25475409626960754,
          0.0750705748796463,
          -0.22610218822956085,
          0.01814192906022072,
          -0.0009890618966892362,
          -0.01431602705270052,
          -0.2134668380022049,
          0.14563944935798645,
          0.13300082087516785,
          -0.38156333565711975,
          0.15122772753238678,
          -0.2627161145210266,
          0.05750242993235588,
          -0.051360633224248886,
          -0.02917322888970375,
          -0.2758226990699768,
          0.04165705665946007,
          0.014452129602432251,
          0.050179559737443924,
          -0.1375357210636139,
          -0.24657872319221497,
          0.1038263812661171,
          -0.2232532948255539,
          0.2505234479904175,
          -0.1944875568151474,
          0.2921122610569,
          0.13462026417255402,
          0.05000061169266701,
          0.03830606862902641,
          -0.0028785192407667637,
          -0.031470078974962234,
          -0.284737765789032,
          -0.3317584693431854,
          0.1736297905445099,
          -0.30064857006073,
          -0.07436197996139526,
          -0.22315293550491333,
          -0.0018198677571490407,
          -0.19898420572280884,
          0.025554735213518143,
          -0.16038332879543304,
          0.21581147611141205,
          -0.13044987618923187,
          0.08780251443386078,
          -0.1614423245191574,
          0.03313367813825607,
          -0.3111129403114319,
          0.05535367876291275,
          -0.22082896530628204
        ],
        [
          -0.04985503852367401,
          0.020280487835407257,
          0.1672438085079193,
          0.08982789516448975,
          -0.3473927080631256,
          0.07639039307832718,
          0.03186877444386482,
          -0.09514456242322922,
          -0.024002214893698692,
          -0.0662728026509285,
          0.09662401676177979,
          0.13804733753204346,
          -0.06249625235795975,
          -0.2065906673669815,
          -0.11880886554718018,
          0.27811482548713684,
          0.07399005442857742,
          -0.06685252487659454,
          -0.14389275014400482,
          0.49422281980514526,
          0.09934132546186447,
          -0.06824332475662231,
          0.010793824680149555,
          -0.0013738711131736636,
          -0.1501351147890091,
          -0.3055879473686218,
          0.03456014394760132,
          0.35916537046432495,
          -0.026528939604759216,
          -0.16558799147605896,
          -0.12764471769332886,
          0.0049715349450707436,
          0.2270946353673935,
          -0.08543936163187027,
          0.07952776551246643,
          -0.07739884406328201,
          0.17595218122005463,
          -0.15182240307331085,
          0.15812689065933228,
          0.21997933089733124,
          0.1675809770822525,
          0.41582977771759033,
          -0.29829710721969604,
          0.2119944989681244,
          0.06960060447454453,
          -0.14989441633224487,
          -0.08184173703193665,
          0.17655226588249207,
          0.1820787936449051,
          -0.14877963066101074,
          -0.022150646895170212,
          -0.14352558553218842,
          -0.2357366979122162,
          -0.27679386734962463,
          -0.08873465657234192
        ],
        [
          0.307345986366272,
          0.1229868158698082,
          -0.09835286438465118,
          -0.20528748631477356,
          -0.12195397913455963,
          -0.08328436315059662,
          -0.22644472122192383,
          -0.2801664173603058,
          0.22860243916511536,
          0.003734087571501732,
          -0.2867554724216461,
          0.08437740057706833,
          -0.16040509939193726,
          0.10781026631593704,
          0.02365145832300186,
          0.3403727114200592,
          -0.05693187564611435,
          0.28272557258605957,
          0.21485817432403564,
          -0.02663963846862316,
          -0.1782941073179245,
          0.01058261375874281,
          -0.05713951587677002,
          0.0731755867600441,
          -0.10000123083591461,
          -0.0545598529279232,
          0.4289100170135498,
          0.154823899269104,
          -0.18061165511608124,
          -0.16904494166374207,
          0.0804702565073967,
          0.11507229506969452,
          0.05473642796278,
          -0.22523567080497742,
          -0.1926845908164978,
          0.24721147119998932,
          -0.008495970629155636,
          -0.12234703451395035,
          -0.2752656042575836,
          0.2716244161128998,
          -0.301287978887558,
          0.17026153206825256,
          0.08915842324495316,
          -0.1812468022108078,
          -0.18674041330814362,
          -0.05931338667869568,
          -0.2990340292453766,
          -0.09362680464982986,
          -0.31352055072784424,
          0.21397435665130615,
          0.23147065937519073,
          0.012496937066316605,
          -0.08976062387228012,
          -0.01769876666367054,
          0.1556793600320816
        ],
        [
          -0.20077183842658997,
          -0.4064376652240753,
          -0.11743390560150146,
          -0.12192027270793915,
          -0.16887706518173218,
          0.07003359496593475,
          -0.0656985193490982,
          -0.17836225032806396,
          -0.04581243172287941,
          0.2524127960205078,
          0.09648346900939941,
          0.012511649169027805,
          0.1856943517923355,
          -0.08349300175905228,
          0.16779352724552155,
          0.0699237734079361,
          -0.06928210705518723,
          0.004872836172580719,
          0.16389507055282593,
          -0.22459353506565094,
          -0.037235505878925323,
          -0.02082470990717411,
          0.29560336470603943,
          0.15521331131458282,
          -0.07002207636833191,
          -0.14202380180358887,
          -0.20130567252635956,
          0.015134911984205246,
          0.309686541557312,
          -0.39042818546295166,
          0.11829141527414322,
          0.052074309438467026,
          0.38545453548431396,
          0.26354941725730896,
          -0.08056670427322388,
          0.19490735232830048,
          0.06640151888132095,
          -0.06501840054988861,
          0.1281813383102417,
          -0.25938189029693604,
          -0.054466407746076584,
          -0.17600707709789276,
          0.05451071634888649,
          -0.0017919937381520867,
          -0.2742844820022583,
          -0.30597108602523804,
          0.09340455383062363,
          0.019840171560645103,
          0.005741860251873732,
          -0.1177079826593399,
          0.024823468178510666,
          0.21758809685707092,
          -0.1445799618959427,
          -0.11793029308319092,
          -0.1211981400847435
        ],
        [
          -0.036434780806303024,
          0.11656787991523743,
          0.1137353703379631,
          0.1943773329257965,
          -0.0785783901810646,
          0.02532137557864189,
          0.03416341543197632,
          0.0955365002155304,
          0.24703189730644226,
          0.10039862990379333,
          0.11734617501497269,
          0.21756204962730408,
          -0.11356697231531143,
          0.010947465896606445,
          0.18826033174991608,
          -0.054247353225946426,
          -0.06186780706048012,
          -0.14215990900993347,
          0.26094380021095276,
          -0.04706912860274315,
          -0.036833103746175766,
          0.020356900990009308,
          -0.005870251916348934,
          0.05269860476255417,
          0.058709047734737396,
          -0.11556334793567657,
          -0.03427784517407417,
          0.21321602165699005,
          0.03747965022921562,
          -0.2800455391407013,
          0.13083131611347198,
          0.16004829108715057,
          -0.24721544981002808,
          0.3852722644805908,
          -0.1790388971567154,
          -0.0009304388659074903,
          0.3068130314350128,
          -0.24481193721294403,
          -0.344706267118454,
          -0.03289198875427246,
          0.20584845542907715,
          0.13823407888412476,
          0.3237795829772949,
          -0.17858651280403137,
          -0.06494933366775513,
          0.29286420345306396,
          0.0463845320045948,
          0.016845567151904106,
          0.2840540111064911,
          0.12226766347885132,
          -0.09575512260198593,
          0.2690292000770569,
          0.11370385438203812,
          -0.06350177526473999,
          0.12775588035583496
        ],
        [
          -0.004464263562113047,
          -0.21790054440498352,
          -0.11620593816041946,
          -0.057573333382606506,
          0.07786593586206436,
          0.18232470750808716,
          0.15177078545093536,
          -0.014797343872487545,
          0.26451700925827026,
          0.0019648890011012554,
          -0.1478385180234909,
          -0.17622387409210205,
          0.028921714052557945,
          -0.17882318794727325,
          -0.13499179482460022,
          -0.09010691940784454,
          0.0023263366892933846,
          0.10003021359443665,
          0.014651484787464142,
          -0.13919322192668915,
          -0.23840562999248505,
          0.26576364040374756,
          0.026713497936725616,
          0.009348656982183456,
          0.04193432256579399,
          -0.2583187222480774,
          -0.1899319589138031,
          -0.19996456801891327,
          -0.1891757994890213,
          0.1317637860774994,
          -0.10536541789770126,
          0.11817772686481476,
          0.13236010074615479,
          -0.2150040566921234,
          0.3490216135978699,
          0.033218611031770706,
          0.35219061374664307,
          -0.07131747901439667,
          -0.17101351916790009,
          0.02982805296778679,
          0.06584835052490234,
          0.0917477235198021,
          0.04150599613785744,
          0.41321760416030884,
          -0.0958414375782013,
          -0.13578559458255768,
          -0.08930616825819016,
          -0.24208714067935944,
          0.10768125206232071,
          0.07227141410112381,
          -0.19726437330245972,
          -0.19816701114177704,
          0.3686276078224182,
          0.07438698410987854,
          0.09786231815814972
        ],
        [
          -0.09484431147575378,
          0.009083771146833897,
          0.11074073612689972,
          -0.09955127537250519,
          0.33757922053337097,
          0.3237326145172119,
          0.042524050921201706,
          0.0008042090339586139,
          0.3639581799507141,
          -0.47401124238967896,
          0.1817265748977661,
          0.10407941043376923,
          0.2172997146844864,
          -0.005701565183699131,
          -0.061142999678850174,
          -0.1269451528787613,
          0.23637829720973969,
          0.08026662468910217,
          -0.1591366082429886,
          0.10616050660610199,
          -0.05132956802845001,
          0.08066243678331375,
          0.1353321373462677,
          0.09246468544006348,
          0.06247051805257797,
          0.014622990973293781,
          -0.1050446555018425,
          -0.31162479519844055,
          0.15848979353904724,
          -0.22423569858074188,
          -0.0515429750084877,
          -0.17484086751937866,
          -0.082757867872715,
          -0.1761610060930252,
          -0.09129079431295395,
          0.17065881192684174,
          -0.059416718780994415,
          -0.06740366667509079,
          -0.24625420570373535,
          0.31658193469047546,
          0.2547423243522644,
          0.045931000262498856,
          -0.12945781648159027,
          0.008609910495579243,
          0.12009161710739136,
          -0.15027175843715668,
          -0.1733568161725998,
          -0.046158317476511,
          0.14408445358276367,
          0.07405268400907516,
          0.00327105401083827,
          0.3032137155532837,
          -0.35439571738243103,
          -0.1626373678445816,
          0.1411130428314209
        ],
        [
          -0.2618958055973053,
          -0.31560832262039185,
          0.1295120120048523,
          -0.032060656696558,
          -0.2512931525707245,
          0.07825826108455658,
          -0.003112953854724765,
          -0.05096025764942169,
          -0.0029299287125468254,
          0.0208984836935997,
          0.1032927930355072,
          -0.17076943814754486,
          -0.23710379004478455,
          -0.1042071208357811,
          0.2788202166557312,
          0.040672700852155685,
          -0.03294403478503227,
          0.08393920212984085,
          -0.30025097727775574,
          -0.08753633499145508,
          0.05331439524888992,
          -0.018614334985613823,
          -0.1461937427520752,
          -0.08291926234960556,
          -0.09327296912670135,
          -0.19908790290355682,
          -0.01977023109793663,
          -0.13742972910404205,
          0.18458110094070435,
          -0.013166286051273346,
          -0.09587158262729645,
          0.07916546612977982,
          -0.08242356777191162,
          -0.05880981311202049,
          -0.15222904086112976,
          -0.22374820709228516,
          0.21178637444972992,
          0.04319949448108673,
          -0.03170869126915932,
          -0.10218193382024765,
          -0.13061566650867462,
          0.018119260668754578,
          0.1948232203722,
          0.011961633339524269,
          -0.0812140628695488,
          -0.13380813598632812,
          -0.3462675213813782,
          0.21935200691223145,
          0.09063759446144104,
          -0.0037616691552102566,
          0.2069661021232605,
          -0.1927175223827362,
          0.047442518174648285,
          0.1783723086118698,
          0.6578241586685181
        ],
        [
          -0.09932761639356613,
          0.06497229635715485,
          -0.22723987698554993,
          -0.31211209297180176,
          -0.03933899849653244,
          -0.14916816353797913,
          0.06249728053808212,
          0.05836235359311104,
          0.24112209677696228,
          0.2422502338886261,
          0.2849172055721283,
          -0.0015612225979566574,
          0.12188991159200668,
          -0.04222501069307327,
          -0.15817564725875854,
          -0.005851395893841982,
          0.24688443541526794,
          -0.21543540060520172,
          0.01752052828669548,
          0.31665274500846863,
          0.23461315035820007,
          0.03555583953857422,
          -0.2894807755947113,
          -0.055484652519226074,
          -0.14873106777668,
          0.1274692565202713,
          -0.12551631033420563,
          -0.03726114332675934,
          0.02095254324376583,
          0.14027515053749084,
          -0.16742567718029022,
          -0.3324700891971588,
          0.18243664503097534,
          0.04980903118848801,
          -0.3071162700653076,
          -0.10877584666013718,
          -0.0041275923140347,
          -0.31533265113830566,
          -0.20037460327148438,
          -0.10680263489484787,
          -0.04058495908975601,
          0.029325176030397415,
          -0.052999839186668396,
          -0.03501751646399498,
          -0.29746341705322266,
          0.1811676025390625,
          0.19357411563396454,
          -0.22234000265598297,
          -0.02107108384370804,
          0.3272272050380707,
          -0.18240778148174286,
          -0.06794948875904083,
          -0.144643172621727,
          0.3432266414165497,
          0.19353152811527252
        ],
        [
          -0.1299714595079422,
          0.10092747956514359,
          -0.012728341855108738,
          0.25381216406822205,
          -0.09575343877077103,
          0.05917920917272568,
          -0.14450132846832275,
          0.23235811293125153,
          -0.1675017923116684,
          0.002616172656416893,
          0.11930343508720398,
          -0.14915014803409576,
          0.07118913531303406,
          -0.15739330649375916,
          -0.1593627780675888,
          -0.16607540845870972,
          -0.1961357742547989,
          -0.26102715730667114,
          -0.05647990480065346,
          -0.10114550590515137,
          0.1745157092809677,
          -0.22520644962787628,
          0.12878930568695068,
          0.1511535942554474,
          -0.06830380856990814,
          0.12102089077234268,
          0.01930023357272148,
          -0.3322013020515442,
          -0.011060887016355991,
          0.026433974504470825,
          0.07862431555986404,
          -0.038181036710739136,
          0.09267466515302658,
          0.15480053424835205,
          -0.23825278878211975,
          0.33978503942489624,
          0.007760518696159124,
          -0.284455806016922,
          -0.13760006427764893,
          0.04244289547204971,
          -0.3225221633911133,
          0.12748758494853973,
          -0.006891646888107061,
          -0.06207985803484917,
          0.31057143211364746,
          0.07709416002035141,
          -0.3025500178337097,
          -0.08626808226108551,
          -0.08142130821943283,
          0.13997629284858704,
          0.17395830154418945,
          0.010978243313729763,
          0.32011374831199646,
          -0.2998237907886505,
          -0.06740478426218033
        ],
        [
          -0.14568190276622772,
          -0.0004737905692309141,
          0.13531701266765594,
          -0.07129283994436264,
          0.034628983587026596,
          0.012661775574088097,
          0.21503056585788727,
          -0.07209771126508713,
          -0.0737495869398117,
          -0.040717579424381256,
          -0.06954696774482727,
          -0.034366197884082794,
          0.08006601780653,
          0.014306703582406044,
          0.047322336584329605,
          0.12232352793216705,
          -0.08049886673688889,
          0.3003014922142029,
          0.4569666385650635,
          0.22747862339019775,
          0.0398629754781723,
          -0.16865459084510803,
          -0.14617052674293518,
          -0.197656512260437,
          -0.016287682577967644,
          -0.3188101649284363,
          -0.006182581186294556,
          -0.2569141685962677,
          -0.11155277490615845,
          0.08536072820425034,
          0.07428264617919922,
          -0.0020081084221601486,
          0.03955385461449623,
          0.11810173094272614,
          -0.053204745054244995,
          0.018053092062473297,
          0.21973679959774017,
          -0.023815499618649483,
          -0.4390079379081726,
          -0.09277079254388809,
          -0.2673569917678833,
          0.1174313947558403,
          -0.02614613063633442,
          -0.10068123042583466,
          0.3815619945526123,
          -0.2236839383840561,
          0.2953949272632599,
          0.06581314653158188,
          0.13486599922180176,
          -0.29888075590133667,
          0.017679354175925255,
          0.0111762173473835,
          0.01588025502860546,
          0.11561313271522522,
          -0.0068549830466508865
        ],
        [
          0.26755180954933167,
          0.1107122153043747,
          0.22740891575813293,
          -0.1436079889535904,
          -0.284313440322876,
          0.031865160912275314,
          0.011517545208334923,
          0.02553870901465416,
          -0.059097032994031906,
          -0.054474543780088425,
          0.2607593536376953,
          0.16859672963619232,
          0.421189546585083,
          0.1742023378610611,
          0.04015543684363365,
          -0.08600010722875595,
          -0.29932257533073425,
          0.06148753687739372,
          -0.10858169943094254,
          -0.05328026041388512,
          0.10968971997499466,
          -0.029438050463795662,
          -0.08458219468593597,
          -0.004626470152288675,
          -0.03168553486466408,
          -0.24558912217617035,
          -0.3763936161994934,
          0.028057441115379333,
          -0.029383812099695206,
          -0.06879463791847229,
          -0.10671410709619522,
          -0.23881196975708008,
          -0.1209762766957283,
          -0.18691247701644897,
          0.5175418853759766,
          0.4593566358089447,
          0.014285125769674778,
          -0.09284038841724396,
          -0.05302046984434128,
          0.09786733239889145,
          -0.03458287939429283,
          -0.18645218014717102,
          0.06317204982042313,
          -0.43139776587486267,
          -0.07517603784799576,
          0.005900994408875704,
          0.08773724734783173,
          -0.07263549417257309,
          -0.006986610591411591,
          -0.09258025139570236,
          0.0809866264462471,
          -0.11108549684286118,
          0.18281367421150208,
          0.07483195513486862,
          0.16441604495048523
        ],
        [
          -0.3740878701210022,
          -0.07996794581413269,
          0.12690363824367523,
          0.40155792236328125,
          0.17168080806732178,
          -0.12887853384017944,
          0.08989480137825012,
          -0.007929257117211819,
          -0.025963107123970985,
          -0.03300361707806587,
          -0.18383541703224182,
          0.054730262607336044,
          0.20095692574977875,
          -0.034822624176740646,
          0.1030135452747345,
          0.24877431988716125,
          0.01641761139035225,
          -0.033078934997320175,
          -0.1725376546382904,
          -0.10638991743326187,
          0.307666540145874,
          0.24014368653297424,
          0.02712286077439785,
          0.32734251022338867,
          0.04522351175546646,
          0.22153043746948242,
          0.29210570454597473,
          0.210038959980011,
          0.10428270697593689,
          0.19017145037651062,
