{
  "format": "json-mlp",
  "name": "pmk_cf_self_rally_v25",
  "sourceModel": "rl/artifacts/pmk_cf_self_rally_v25/pmk_cf_self_rally_v25_model.zip",
  "observationSize": 55,
  "actionSize": 15,
  "actionLow": [
    -0.019999999552965164,
    -0.019999999552965164,
    -0.029999999329447746,
    -0.00800000037997961,
    -0.00800000037997961,
    -0.3499999940395355,
    -0.3499999940395355,
    -0.3499999940395355,
    -0.44999998807907104,
    -0.75,
    -0.75,
    -0.3499999940395355,
    -0.3499999940395355,
    -0.07999999821186066,
    -0.02500000037252903
  ],
  "actionHigh": [
    0.019999999552965164,
    0.019999999552965164,
    0.029999999329447746,
    0.00800000037997961,
    0.00800000037997961,
    0.3499999940395355,
    0.3499999940395355,
    0.3499999940395355,
    0.44999998807907104,
    0.75,
    0.75,
    0.3499999940395355,
    0.3499999940395355,
    0.07999999821186066,
    0.02500000037252903
  ],
  "activation": "tanh",
  "squashOutput": false,
  "layers": [
    {
      "type": "linear",
      "weight": [
        [
          0.10980233550071716,
          -0.18329723179340363,
          -0.21740058064460754,
          0.21924108266830444,
          0.13201706111431122,
          -0.012887692078948021,
          -0.031691860407590866,
          -0.4842662513256073,
          -0.17714986205101013,
          -0.11523637920618057,
          -0.1870855689048767,
          0.19328366219997406,
          -0.05976487323641777,
          -0.04242747649550438,
          0.16163265705108643,
          0.11777199059724808,
          -0.4533967077732086,
          -0.17807085812091827,
          -0.30494579672813416,
          0.11819688975811005,
          0.15859554708003998,
          -0.2106231153011322,
          -0.3427093029022217,
          0.08795223385095596,
          0.18429625034332275,
          -0.02502862922847271,
          -0.10330971330404282,
          -0.1813454031944275,
          -0.16217273473739624,
          -0.017864037305116653,
          -0.20684079825878143,
          -0.002123562851920724,
          -0.10159701108932495,
          -0.16604913771152496,
          -0.06536279618740082,
          -0.17025727033615112,
          0.05394792929291725,
          -0.053040068596601486,
          -0.22399993240833282,
          0.10519817471504211,
          -0.0004922930966131389,
          -0.14601318538188934,
          0.09507761895656586,
          0.28042489290237427,
          -0.0743132084608078,
          -0.07180751115083694,
          0.2639875113964081,
          -0.1652500182390213,
          -0.14711922407150269,
          0.076095812022686,
          -0.14879563450813293,
          0.43146857619285583,
          0.09221988171339035,
          -0.15179625153541565,
          -0.011438798159360886
        ],
        [
          -0.13638940453529358,
          -0.3255019783973694,
          -0.10346654802560806,
          0.02583259344100952,
          -0.10540802031755447,
          -0.023653453215956688,
          -0.27458199858665466,
          0.06233234331011772,
          -0.12020931392908096,
          0.06669826805591583,
          -0.14742597937583923,
          -0.2821059823036194,
          0.06493934243917465,
          0.08787024766206741,
          -0.3536623418331146,
          0.207427978515625,
          0.2023344784975052,
          -0.16623800992965698,
          0.37020203471183777,
          0.23637470602989197,
          0.009134730324149132,
          -0.02070596255362034,
          -0.06212491914629936,
          0.47986558079719543,
          -0.20666976273059845,
          0.04872305318713188,
          0.011324862018227577,
          -0.14441506564617157,
          0.13808465003967285,
          -0.011122341267764568,
          -0.12406905740499496,
          0.13089698553085327,
          -0.47067853808403015,
          -0.30543288588523865,
          0.21897025406360626,
          -0.24239636957645416,
          -0.07596980035305023,
          0.00809921883046627,
          -0.14566980302333832,
          0.12151876837015152,
          0.02347278594970703,
          -0.262340247631073,
          0.07071910053491592,
          -0.28091132640838623,
          -0.06731940805912018,
          0.12036505341529846,
          -0.006560472771525383,
          0.23120161890983582,
          0.2055130898952484,
          -0.2135157734155655,
          -0.06292162090539932,
          0.1247619092464447,
          0.03480535373091698,
          -0.13017486035823822,
          0.038252949714660645
        ],
        [
          -0.005605087615549564,
          0.031372569501399994,
          -0.23321858048439026,
          -0.11374226957559586,
          0.21000874042510986,
          -0.4090685546398163,
          -0.08176635205745697,
          -0.07327406108379364,
          -0.0519707128405571,
          0.11002687364816666,
          0.15796013176441193,
          -0.002346482826396823,
          -0.1850176602602005,
          0.026332519948482513,
          0.435821533203125,
          0.11863436549901962,
          0.3429565131664276,
          -0.036620430648326874,
          -0.004032406955957413,
          -0.17791911959648132,
          0.33371877670288086,
          -0.031017735600471497,
          0.027235455811023712,
          0.10546011477708817,
          0.11521200090646744,
          0.06644231081008911,
          -0.01900593750178814,
          -0.2092023342847824,
          -0.11021914333105087,
          -0.2840936779975891,
          -0.18002942204475403,
          -0.16957677900791168,
          -0.2917806804180145,
          0.19567067921161652,
          0.34856340289115906,
          0.08271102607250214,
          0.16685213148593903,
          0.08184397965669632,
          -0.19490182399749756,
          0.12877778708934784,
          0.010585129261016846,
          -0.06511183828115463,
          -0.13018165528774261,
          0.22266601026058197,
          0.10280992090702057,
          -0.035792335867881775,
          -0.2838151454925537,
          0.08987071365118027,
          0.09494256973266602,
          0.08696819841861725,
          0.24501141905784607,
          -0.3808344602584839,
          -0.009737623855471611,
          0.04529568552970886,
          -0.1267828494310379
        ],
        [
          0.05153907835483551,
          0.3418289124965668,
          0.12278776615858078,
          0.10499695688486099,
          -0.012089664116501808,
          -0.1267288774251938,
          -0.14381687343120575,
          0.06680972129106522,
          0.023793721571564674,
          -0.10873080044984818,
          -0.36966773867607117,
          -0.5519611835479736,
          -0.20000343024730682,
          0.14947940409183502,
          -0.12386524677276611,
          -0.1598496437072754,
          -0.1566895991563797,
          0.1500573605298996,
          -0.020047031342983246,
          0.21707946062088013,
          0.05576493963599205,
          -0.391952782869339,
          0.18319757282733917,
          -0.0014495565555989742,
          0.030194761231541634,
          -0.04107990488409996,
          -0.10280080139636993,
          -0.11085109412670135,
          0.06799162924289703,
          -0.11181557178497314,
          0.04161008819937706,
          -0.20489010214805603,
          -0.004174837842583656,
          0.18017365038394928,
          0.34911873936653137,
          -0.07383455336093903,
          0.32807740569114685,
          0.07703577727079391,
          0.07438246160745621,
          -0.27309828996658325,
          -0.04493522271513939,
          0.23856471478939056,
          -0.21187745034694672,
          0.0714612826704979,
          -0.218584805727005,
          0.13701026141643524,
          0.19112829864025116,
          -0.023524736985564232,
          0.047220028936862946,
          0.24226930737495422,
          0.08801165223121643,
          0.1738777458667755,
          -0.13971057534217834,
          -0.056206732988357544,
          0.22839054465293884
        ],
        [
          0.21180838346481323,
          -0.14120659232139587,
          -0.09473610669374466,
          0.1686568409204483,
          -0.060613736510276794,
          -0.06415169686079025,
          -0.22410203516483307,
          -0.2449261099100113,
          0.1363202929496765,
          -0.1489279419183731,
          -0.05771108716726303,
          0.00698608485981822,
          -0.09475285559892654,
          -0.0339156799018383,
          -0.13504981994628906,
          -0.3045075535774231,
          0.03812246024608612,
          0.11404449492692947,
          0.20865485072135925,
          -0.2006029188632965,
          0.0805446058511734,
          -0.04901701211929321,
          -0.36536648869514465,
          -0.2495851218700409,
          -0.027133561670780182,
          0.20373490452766418,
          -0.1802939921617508,
          0.31675851345062256,
          0.29639801383018494,
          -0.10454922914505005,
          0.1389792114496231,
          0.07095690071582794,
          -0.12008319050073624,
          0.05482025817036629,
          0.19949233531951904,
          0.17133828997612,
          0.23728831112384796,
          -0.2578945457935333,
          0.026380037888884544,
          0.013554000295698643,
          0.011232524178922176,
          -0.07057464122772217,
          -0.0642320066690445,
          0.1447930485010147,
          0.10313977301120758,
          0.1398039609193802,
          -0.25978440046310425,
          0.004862579982727766,
          0.09990479797124863,
          -0.09568902105093002,
          -0.244117870926857,
          -0.04967345669865608,
          -0.2602243423461914,
          -0.07666859775781631,
          -0.17837461829185486
        ],
        [
          -0.05484192073345184,
          -0.030482370406389236,
          -0.056885577738285065,
          0.23555852472782135,
          -0.04453730210661888,
          0.3349035084247589,
          0.1650157868862152,
          -0.15121828019618988,
          0.5419331789016724,
          0.007961804047226906,
          -0.27381813526153564,
          0.04750514402985573,
          0.1553507298231125,
          0.1628681719303131,
          0.09408418089151382,
          0.3164776861667633,
          0.34343767166137695,
          -0.3675615191459656,
          0.08177537471055984,
          0.1092887818813324,
          0.12807483971118927,
          -0.09712132066488266,
          -0.03872057422995567,
          -0.3475719094276428,
          -0.065845787525177,
          -0.013853244483470917,
          -0.20337453484535217,
          0.0036148298531770706,
          0.1474684625864029,
          0.2167845070362091,
          -0.16091200709342957,
          0.1400436908006668,
          -0.1337561160326004,
          0.241526797413826,
          0.14353801310062408,
          0.14050644636154175,
          -0.10998392850160599,
          0.3315941095352173,
          0.1550147533416748,
          -0.16899211704730988,
          -0.2778003215789795,
          0.010513651184737682,
          -0.03236536681652069,
          -0.07576965540647507,
          0.0026052682660520077,
          -0.02356516569852829,
          -0.26549676060676575,
          -0.11851827055215836,
          -0.09983401000499725,
          0.11881537735462189,
          0.041193634271621704,
          0.1693834662437439,
          0.17376452684402466,
          -0.17712874710559845,
          0.07955120503902435
        ],
        [
          -0.17516106367111206,
          0.16939543187618256,
          -0.07542179524898529,
          0.20122255384922028,
          0.02208663336932659,
          -0.12555547058582306,
          0.410726398229599,
          0.12316593527793884,
          0.12316042929887772,
          -0.039493538439273834,
          -0.006867655087262392,
          0.12735959887504578,
          -0.28167417645454407,
          -0.016284998506307602,
          0.0429985448718071,
          -0.009105904959142208,
          -0.36942994594573975,
          -0.05845978483557701,
          0.25018325448036194,
          0.06699331104755402,
          -0.07509487867355347,
          0.04100610688328743,
          0.1498798429965973,
          0.16745850443840027,
          -0.2059820592403412,
          0.34690046310424805,
          -0.10013547539710999,
          -0.10350712388753891,
          -0.3398926854133606,
          0.13688544929027557,
          -0.1702595353126526,
          -0.009559168480336666,
          -0.13699248433113098,
          -0.08210829645395279,
          -0.049173444509506226,
          0.19799458980560303,
          -0.07133318483829498,
          -0.24827025830745697,
          0.40381112694740295,
          0.1027660220861435,
          -0.0345030203461647,
          0.03154204785823822,
          0.01931127719581127,
          0.04049830138683319,
          -0.2019800990819931,
          -0.3764812648296356,
          -0.20612144470214844,
          0.1529371738433838,
          0.34520113468170166,
          -0.08966591954231262,
          0.08206246793270111,
          0.15109916031360626,
          0.004527283366769552,
          0.1630684733390808,
          0.07028678804636002
        ],
        [
          -0.1228393018245697,
          0.12931658327579498,
          -0.1746785044670105,
          0.1629955768585205,
          -0.03091311641037464,
          0.016945624724030495,
          0.15815213322639465,
          -0.20282362401485443,
          0.03407489135861397,
          -0.2602923512458801,
          0.031184528023004532,
          -0.032139308750629425,
          0.32544705271720886,
          0.26986441016197205,
          -0.018328141421079636,
          -0.09984402358531952,
          -0.22496066987514496,
          0.11648914217948914,
          0.025241965427994728,
          0.03712243586778641,
          0.21578152477741241,
          0.11178276687860489,
          -0.1844836324453354,
          -0.25340133905410767,
          0.018964631482958794,
          0.17198112607002258,
          0.009409964084625244,
          0.05597382038831711,
          0.048071302473545074,
          -0.23297783732414246,
          0.28426215052604675,
          0.06611795723438263,
          -0.09227009862661362,
          -0.0655098706483841,
          -0.044996216893196106,
          -0.3328950107097626,
          -0.12604792416095734,
          -0.1304807811975479,
          -0.07606580853462219,
          -0.1910874843597412,
          0.024185698479413986,
          -0.010877622291445732,
          0.09555406123399734,
          0.10590046644210815,
          -0.002945937681943178,
          -0.2031335085630417,
          -0.1371670365333557,
          0.3003714382648468,
          0.17122139036655426,
          0.22760100662708282,
          0.12630312144756317,
          -0.14167828857898712,
          0.2176979035139084,
          0.043800219893455505,
          -0.2547067701816559
        ],
        [
          0.06145811453461647,
          0.07364417612552643,
          -0.13640929758548737,
          0.0650840476155281,
          0.11029299348592758,
          0.20789895951747894,
          0.08204780519008636,
          -0.23301102221012115,
          -0.14570708572864532,
          -0.043070197105407715,
          0.19843730330467224,
          -0.29341065883636475,
          0.02023988589644432,
          -0.22778236865997314,
          0.13352520763874054,
          0.10779128223657608,
          0.07523007690906525,
          -0.1275566667318344,
          -0.16645604372024536,
          -0.006800265517085791,
          -0.06250101327896118,
          0.04277848079800606,
          -0.3507791757583618,
          -0.1128220483660698,
          -0.5315120220184326,
          0.027143269777297974,
          0.14555814862251282,
          0.0692499652504921,
          -0.11654003709554672,
          0.06047074869275093,
          0.20557065308094025,
          0.043407246470451355,
          0.08315534889698029,
          -0.2135937660932541,
          0.20024968683719635,
          0.23397795855998993,
          0.05107792466878891,
          -0.0752510204911232,
          0.18222033977508545,
          -0.19306541979312897,
          -0.13607157766819,
          -0.08490642160177231,
          -0.025993933901190758,
          -0.04624047502875328,
          -0.1799350082874298,
          0.21348638832569122,
          0.04558578133583069,
          0.014791358262300491,
          0.07591007649898529,
          -0.08566797524690628,
          0.09664222598075867,
          0.01077974122017622,
          -0.016014931723475456,
          0.004937323275953531,
          -0.06896616518497467
        ],
        [
          0.12169128656387329,
          0.09762190282344818,
          0.26179003715515137,
          0.08924628049135208,
          0.08253194391727448,
          0.01125011220574379,
          -0.007110114675015211,
          -0.4911230504512787,
          -0.2965328097343445,
          -0.0212334506213665,
          0.0432446263730526,
          0.08079586923122406,
          0.059457555413246155,
          -0.03973383456468582,
          -0.10651350021362305,
          -0.19277065992355347,
          0.29515957832336426,
          0.05480274185538292,
          -0.03441675007343292,
          -0.08714187145233154,
          0.13497105240821838,
          0.27827271819114685,
          0.5062717795372009,
          -0.1756327599287033,
          0.061368830502033234,
          -0.06180349737405777,
          -0.2170664370059967,
          -0.11368822306394577,
          -0.06572462618350983,
          0.09760407358407974,
          0.17463700473308563,
          0.2094058245420456,
          -0.35672613978385925,
          -0.041371721774339676,
          -0.1467929631471634,
          -0.18641610443592072,
          -0.04765541851520538,
          -0.0438559390604496,
          0.09324900805950165,
          0.15906062722206116,
          -0.22487817704677582,
          0.29816722869873047,
          0.09197648614645004,
          -0.15440185368061066,
          -0.40178313851356506,
          0.011239814572036266,
          0.16620442271232605,
          0.061967458575963974,
          0.003461981425061822,
          0.10561732947826385,
          -0.11826197057962418,
          -0.17441967129707336,
          0.05906545743346214,
          -0.10368460416793823,
          0.12916052341461182
        ],
        [
          0.06803585588932037,
          -0.13960283994674683,
          0.0020239485893398523,
          0.2942275106906891,
          0.08729838579893112,
          -0.3147416412830353,
          0.088160440325737,
          -0.2790364623069763,
          0.11747558414936066,
          0.14886833727359772,
          -0.057237353175878525,
          0.023990001529455185,
          0.2666226029396057,
          0.13210757076740265,
          -0.20703598856925964,
          -0.15599270164966583,
          -0.12370400875806808,
          -0.2186359167098999,
          -0.010579071007668972,
          -0.06208806484937668,
          -0.17450305819511414,
          0.08536949753761292,
          -0.0031236917711794376,
          0.13065144419670105,
          -0.08745237439870834,
          0.03840939700603485,
          -0.006113117560744286,
          -0.06807942688465118,
          0.01688458025455475,
          -0.06403931230306625,
          -0.10714294016361237,
          -0.02942550554871559,
          0.14195123314857483,
          -0.11909819394350052,
          -0.18637539446353912,
          0.12416482716798782,
          -0.26355111598968506,
          0.19225409626960754,
          -0.34424400329589844,
          -0.3302759826183319,
          -0.08743134140968323,
          0.39072367548942566,
          -0.1617169827222824,
          0.09123854339122772,
          0.2592321038246155,
          0.21140043437480927,
          -0.03473547846078873,
          0.10361010581254959,
          0.11421281844377518,
          -0.3267441689968109,
          -0.02524745650589466,
          -0.3923543691635132,
          -0.0900007039308548,
          -0.07545292377471924,
          0.17634661495685577
        ],
        [
          0.28062328696250916,
          0.04500566050410271,
          0.033799584954977036,
          -0.1130330041050911,
          0.20222552120685577,
          0.19919516146183014,
          0.3744737505912781,
          0.3953632414340973,
          -0.04517795518040657,
          -0.051165878772735596,
          -0.11538626253604889,
          0.17872776091098785,
          0.08876456320285797,
          0.10652134567499161,
          0.028620047494769096,
          0.17147457599639893,
          0.044186241924762726,
          0.0663394182920456,
          -0.04255686700344086,
          -0.177361860871315,
          -0.1372937113046646,
          -0.34896320104599,
          -0.08256090432405472,
          0.18468709290027618,
          -0.25583624839782715,
          0.10953526943922043,
          0.05119961127638817,
          0.07640047371387482,
          0.47530481219291687,
          -0.06136329472064972,
          0.2854837477207184,
          0.055935028940439224,
          -0.20811790227890015,
          -0.08893874287605286,
          -0.12229343503713608,
          -0.1183171272277832,
          0.15268638730049133,
          -0.0061210454441607,
          -0.12338895350694656,
          0.11224265396595001,
          -0.23094891011714935,
          0.04210444912314415,
          -0.38639357686042786,
          0.1285497099161148,
          -0.1570923626422882,
          -0.14121593534946442,
          0.0887320339679718,
          0.04505531117320061,
          0.05211322754621506,
          0.027286479249596596,
          -0.20301996171474457,
          -0.1896929293870926,
          0.26972052454948425,
          0.1671164482831955,
          -0.07025591284036636
        ],
        [
          -0.21320608258247375,
          0.3054046034812927,
          0.11965377628803253,
          -0.12776805460453033,
          0.17329420149326324,
          0.22071146965026855,
          -0.2005590945482254,
          -0.022333132103085518,
          -0.2969348728656769,
          0.2719038128852844,
          0.07187698036432266,
          -0.19842460751533508,
          0.2367636263370514,
          -0.010457716882228851,
          0.2562965452671051,
          -0.050299640744924545,
          -0.06260741502046585,
          0.17095279693603516,
          0.3708188831806183,
          -0.05347518250346184,
          0.026319999247789383,
          0.3453473746776581,
          -0.23324544727802277,
          -0.005145400296896696,
          0.07897943258285522,
          0.010624674148857594,
          -0.0454961322247982,
          0.2049722969532013,
          0.20855174958705902,
          0.4937267303466797,
          -0.2055332213640213,
          -0.010937804356217384,
          -0.13480864465236664,
          -0.10309239476919174,
          -0.035005487501621246,
          -0.10804697126150131,
          0.09679478406906128,
          -0.21443787217140198,
          -0.023273853585124016,
          -0.010481677949428558,
          -0.0425875186920166,
          0.20377163589000702,
          -0.05568188801407814,
          0.16378597915172577,
          0.09278233349323273,
          -0.08150173723697662,
          -0.1904536485671997,
          -0.24483920633792877,
          0.0742960125207901,
          -0.026472000405192375,
          0.17406371235847473,
          0.16990402340888977,
          -0.08341694623231888,
          -0.1525316834449768,
          -0.0897529348731041
        ],
        [
          -0.08335987478494644,
          0.049473829567432404,
          0.24960799515247345,
          -0.11312247067689896,
          0.008576599881052971,
          -0.0469597764313221,
          -0.30834370851516724,
          0.1424991935491562,
          0.2829403579235077,
          0.22737470269203186,
          -0.11137539893388748,
          0.2994588613510132,
          0.0009546265937387943,
          -0.03349703922867775,
          0.0758197009563446,
          0.24802595376968384,
          -0.056022487580776215,
          -0.11484456062316895,
          -0.14496025443077087,
          -0.1558469980955124,
          -0.146013081073761,
          -0.11703165620565414,
          -0.09925184398889542,
          -0.06139450520277023,
          0.23775559663772583,
          -0.15168830752372742,
          -0.011381563730537891,
          -0.0686202198266983,
          -0.06261106580495834,
          -0.08317039161920547,
          -0.3194545805454254,
          -0.1605926901102066,
          -0.30180272459983826,
          -0.029087530449032784,
          0.08110067248344421,
          -0.08216115087270737,
          -0.1072811484336853,
          -0.16609081625938416,
          0.20932134985923767,
          -0.1517924815416336,
          -0.2520778477191925,
          0.3648715317249298,
          0.0964597836136818,
          0.010374614968895912,
          -0.0672539472579956,
          -0.013240889646112919,
          0.1279057413339615,
          0.0449267141520977,
          0.1003754585981369,
          -0.17214080691337585,
          -0.17438486218452454,
          -0.06617909669876099,
          0.06270286440849304,
          0.0839637964963913,
          -0.46208655834198
        ],
        [
          0.24587510526180267,
          -0.18072985112667084,
          -0.2524726390838623,
          0.025835968554019928,
          -0.4775036573410034,
          0.1719168871641159,
          0.14367176592350006,
          0.054447248578071594,
          -0.08656424283981323,
          0.2830387353897095,
          0.01899644546210766,
          0.0886753723025322,
          -0.21449126303195953,
          -0.0637596845626831,
          -0.117393359541893,
          0.18666581809520721,
          -0.1099662184715271,
          0.013679895550012589,
          0.1338534653186798,
          0.14651532471179962,
          0.08344119042158127,
          0.1070144921541214,
          0.19660404324531555,
          0.07732856273651123,
          0.4012109339237213,
          0.23069724440574646,
          -0.18437685072422028,
          -0.08797315508127213,
          0.20727314054965973,
          0.058015190064907074,
          0.3517896234989166,
          -0.27004221081733704,
          0.04307910427451134,
          -0.17430970072746277,
          0.13720190525054932,
          -0.14779719710350037,
          -0.040640804916620255,
          -0.0359358973801136,
          0.01867116242647171,
          0.07980118691921234,
          -0.12803231179714203,
          0.09121356159448624,
          0.05808914452791214,
          0.08240753412246704,
          0.19032233953475952,
          -0.027789272367954254,
          -0.11822650581598282,
          -0.378571093082428,
          0.08869536221027374,
          0.13992461562156677,
          -0.10270233452320099,
          -0.16571395099163055,
          0.00848330743610859,
          -0.15528474748134613,
          0.04608603194355965
        ],
        [
          -0.001739242346957326,
          0.010268144309520721,
          -0.13851892948150635,
          -0.14790238440036774,
          0.10561838746070862,
          -0.072036974132061,
          -0.31000199913978577,
          -0.2842766046524048,
          -0.06735420227050781,
          0.012122075073421001,
          -0.04249536991119385,
          -0.015772365033626556,
          -0.01667526364326477,
          0.2905115783214569,
          0.18557657301425934,
          0.03126707673072815,
          0.08505871891975403,
          -0.17066916823387146,
          0.18037858605384827,
          -0.015084456652402878,
          0.11888483166694641,
          -0.4616856276988983,
          0.16398489475250244,
          -0.03342664986848831,
          -0.2301357388496399,
          0.10294252634048462,
          -0.2319401502609253,
          0.09847389161586761,
          -0.23981356620788574,
          0.1155424639582634,
          0.08972930908203125,
          0.1721668839454651,
          0.14580972492694855,
          -0.14455223083496094,
          -0.12819410860538483,
          0.11693327873945236,
          0.05260526016354561,
          0.02328071929514408,
          0.18776758015155792,
          0.12637804448604584,
          0.3630479574203491,
          0.1881301999092102,
          -0.06300001591444016,
          -0.2295484095811844,
          0.21068257093429565,
          -0.2104221135377884,
          0.031147634610533714,
          -0.3623272776603699,
          0.3309832811355591,
          0.019905338063836098,
          -0.2192019373178482,
          -0.16557542979717255,
          0.1781785488128662,
          0.14807935059070587,
          0.12553396821022034
        ],
        [
          -0.07689417153596878,
          -0.16554728150367737,
          0.03980669379234314,
          0.18054497241973877,
          0.1521412879228592,
          0.005160585045814514,
          0.08133235573768616,
          0.24990293383598328,
          -0.1843472123146057,
          -0.3276018798351288,
          0.13696086406707764,
          -0.08161669969558716,
          0.30627569556236267,
          0.2173779308795929,
          0.18832126259803772,
          0.14268149435520172,
          0.015605566091835499,
          0.0842621922492981,
          0.19734498858451843,
          0.11135882139205933,
          -0.3432772755622864,
          -0.2729581594467163,
          0.1699392944574356,
          0.04024122655391693,
          0.08844999223947525,
          -0.18420438468456268,
          0.010209428146481514,
          0.24711622297763824,
          -0.25226593017578125,
          -0.06911300122737885,
          -0.12263625115156174,
          0.00501214200630784,
          -0.08939095586538315,
          -0.042202286422252655,
          -0.1516597419977188,
          -0.0852765366435051,
          0.058672551065683365,
          0.06700549274682999,
          0.16203652322292328,
          -0.15103250741958618,
          -0.08457426726818085,
          -0.22896571457386017,
          0.36330410838127136,
          0.21635301411151886,
          0.05692373216152191,
          0.1921001672744751,
          -0.15089967846870422,
          -0.3982406258583069,
          -0.0776292160153389,
          0.14141641557216644,
          -0.1122206524014473,
          -0.301876962184906,
          -0.2604316473007202,
          -0.09838398545980453,
          0.043480586260557175
        ],
        [
          0.35538628697395325,
          -0.15109337866306305,
          -0.08933843672275543,
          -0.09705246239900589,
          0.00043467123759910464,
          0.26556357741355896,
          0.04631681367754936,
          -0.04494944587349892,
          0.10782015323638916,
          -0.0031384536996483803,
          0.09256881475448608,
          0.2160792052745819,
          -0.0788969025015831,
          0.20267939567565918,
          0.11499348282814026,
          0.0020029644947499037,
          -0.0659690573811531,
          0.18289953470230103,
          -0.023765264078974724,
          0.13436108827590942,
          0.16445504128932953,
          0.08072639256715775,
          -0.041378654539585114,
          0.32676345109939575,
          0.19312745332717896,
          0.2059076726436615,
          0.09631067514419556,
          0.011386115103960037,
          -0.07213248312473297,
          0.29875433444976807,
          -0.12422068417072296,
          0.28107213973999023,
          -0.19798266887664795,
          0.18927742540836334,
          -0.07990653067827225,
          0.1518711894750595,
          0.10663548111915588,
          -0.041920006275177,
          0.015042062848806381,
          -0.5465022325515747,
          0.18356925249099731,
          -0.07439461350440979,
          -0.25555220246315,
          -0.07109489291906357,
          0.001956881722435355,
          -0.16940326988697052,
          0.31855371594429016,
          0.06967059522867203,
          0.07167177647352219,
          0.021138213574886322,
          0.26530104875564575,
          -0.24369338154792786,
          -0.20900751650333405,
          -0.24753431975841522,
          0.14939948916435242
        ],
        [
          0.36530357599258423,
          0.04335562139749527,
          -0.032105233520269394,
          0.32003137469291687,
          0.05202390253543854,
          0.06525633484125137,
          -0.12757249176502228,
          0.04067109152674675,
          -0.18358644843101501,
          -0.015341075137257576,
          0.19723744690418243,
          -0.08001730591058731,
          -0.0630154013633728,
          -0.05718959495425224,
          -0.05415833368897438,
          0.2141106128692627,
          -0.013895522803068161,
          -0.2334176003932953,
          0.12781447172164917,
          -0.2946142256259918,
          -0.14601583778858185,
          0.10731194168329239,
          0.11356913298368454,
          -0.3538007140159607,
          -0.020163899287581444,
          0.15130436420440674,
          0.13646717369556427,
          0.07647927105426788,
          -0.0748654305934906,
          -0.19420166313648224,
          -0.07363877445459366,
          -0.3463749289512634,
          -0.12051254510879517,
          0.10216668993234634,
          -0.026024185121059418,
          -0.1507115513086319,
          0.005898789968341589,
          0.02430456317961216,
          -0.19879662990570068,
          -0.13261884450912476,
          0.0036675771698355675,
          -0.0634528324007988,
          -0.13106097280979156,
          0.04634176567196846,
          -0.1070074811577797,
          -0.2695661783218384,
          -0.031109018251299858,
          -0.17805399000644684,
          0.17128753662109375,
          -0.3844822347164154,
          -0.17619125545024872,
          0.20851032435894012,
          -0.14724917709827423,
          0.24724704027175903,
          0.34615176916122437
        ],
        [
          -0.18655309081077576,
          -0.1452455222606659,
          -0.025397710502147675,
          0.18680278956890106,
          0.13959091901779175,
          0.051509831100702286,
          -0.11413488537073135,
          0.023164184764027596,
          -0.08767902851104736,
          -0.046573713421821594,
          0.2777706980705261,
          0.14596064388751984,
          -0.2698751389980316,
          0.19364824891090393,
          -0.07390905171632767,
          0.10175154358148575,
          0.19545623660087585,
          -0.07782421261072159,
          0.198541522026062,
          0.13919031620025635,
          -0.31779590249061584,
          0.17057965695858002,
          -0.16240538656711578,
          -0.11504587531089783,
          0.005509918089956045,
          0.12343779951334,
          -0.34268462657928467,
          -0.14633521437644958,
          -0.0610586442053318,
          -0.2668749690055847,
          0.22669607400894165,
          0.08685977011919022,
          -0.06781480461359024,
          -0.05998096242547035,
          0.18253925442695618,
          0.07563221454620361,
          -0.010878595523536205,
          -0.12820257246494293,
          0.19319088757038116,
          0.08383409678936005,
          -0.3380293548107147,
          0.14244501292705536,
          -0.12245883047580719,
          0.10456765443086624,
          0.2855265438556671,
          -0.0438288114964962,
          0.4344944953918457,
          -0.02753744274377823,
          -0.33367910981178284,
          0.11107350140810013,
          0.3735417425632477,
          0.06375753879547119,
          -0.1524336338043213,
          0.20712614059448242,
          0.10690974444150925
        ],
        [
          -0.04102304205298424,
          0.039196692407131195,
          -0.32764896750450134,
          0.18982356786727905,
          -0.32700034976005554,
          -0.07502253353595734,
          0.06452800333499908,
          0.23800484836101532,
          0.028484513983130455,
          -0.2503853738307953,
          0.059338681399822235,
          0.07234814018011093,
          -0.054927777498960495,
          0.3010227084159851,
          0.02743915095925331,
          -0.08534108847379684,
          -0.14007221162319183,
          0.09826336801052094,
          0.23892369866371155,
          -0.3495578169822693,
          0.23680368065834045,
          0.2574805021286011,
          -0.25823330879211426,
          0.0008343588560819626,
          -0.19239012897014618,
          -0.37138602137565613,
          0.11491241306066513,
          -0.15570737421512604,
          0.04866045340895653,
          -0.0010865448275581002,
          -0.19093957543373108,
          0.09003716707229614,
          0.12258466333150864,
          0.14442427456378937,
          0.05703685060143471,
          -0.10317455232143402,
          -0.2737518548965454,
          0.2934599816799164,
          0.12806174159049988,
          0.3608141839504242,
          -0.08389639854431152,
          0.15962764620780945,
          -0.031020136550068855,
          0.03454608470201492,
          -0.15844005346298218,
          0.12661895155906677,
          0.2719360888004303,
          -0.1610182374715805,
          0.27451789379119873,
          0.16935743391513824,
          -0.0375722274184227,
          -0.08487913757562637,
          -0.1973642110824585,
          -0.13802622258663177,
          0.039827123284339905
        ],
        [
          -0.12467709183692932,
          0.11416642367839813,
          -0.17547161877155304,
          0.13294917345046997,
          -0.21212813258171082,
          0.020527206361293793,
          -0.017437763512134552,
          -0.16220597922801971,
          0.25987210869789124,
          0.07730389386415482,
          0.3573985993862152,
          -0.13982537388801575,
          -0.18205834925174713,
          0.2438119798898697,
          -0.23376719653606415,
          -0.13737305998802185,
          0.04567423090338707,
          0.04790353402495384,
          -0.2310447245836258,
          -0.0244673453271389,
          -0.25172269344329834,
          0.17411670088768005,
          0.03197169676423073,
          0.3254343867301941,
          0.10261213034391403,
          -0.3090224862098694,
          0.10854379087686539,
          0.0317428894340992,
          -0.21495677530765533,
          0.1562049835920334,
          0.22554267942905426,
          0.13208602368831635,
          -0.29006847739219666,
          0.11611099541187286,
          -0.09179606288671494,
          0.10732842981815338,
          0.25503456592559814,
          0.1429188847541809,
          -0.01579689420759678,
          -0.05764696002006531,
          0.06498691439628601,
          -0.03703056648373604,
          -0.2836836576461792,
          0.03032642789185047,
          -0.05061787739396095,
          0.07679642736911774,
          -0.12435606122016907,
          -0.26788681745529175,
          -0.06567519903182983,
          -0.21717403829097748,
          -0.03664853423833847,
          0.1721012443304062,
          0.12402358651161194,
          0.24498265981674194,
          -0.2511666417121887
        ],
        [
          -0.2051355093717575,
          -0.44511181116104126,
          0.12091776728630066,
          0.15099386870861053,
          -0.22110521793365479,
          0.15170368552207947,
          0.11276116967201233,
          -0.11401484161615372,
          0.01746205799281597,
          -0.17658336460590363,
          0.09000211209058762,
          0.02613895945250988,
          -0.018217401579022408,
          0.09185866266489029,
          0.3263298571109772,
          -0.04531252756714821,
          0.23612691462039948,
          0.21969415247440338,
          0.19755759835243225,
          -0.08197835087776184,
          0.08991336822509766,
          -0.24209047853946686,
          -0.05204469710588455,
          -0.05993947014212608,
          0.20961187779903412,
          0.13296973705291748,
          0.29387661814689636,
          -0.048771899193525314,
          -0.21778787672519684,
          0.2563379406929016,
          0.28664350509643555,
          -0.49579599499702454,
          0.08384383469820023,
          -0.0768687054514885,
          0.10823807120323181,
          -0.030831044539809227,
          -0.13714571297168732,
          0.03434772789478302,
          -0.038042642176151276,
          0.023409642279148102,
          0.23839835822582245,
          0.26338690519332886,
          -0.1290300041437149,
          -0.14723457396030426,
          -0.11366548389196396,
          0.21828895807266235,
          -0.023276766762137413,
          0.1400875449180603,
          -0.08836836367845535,
          -0.11295124143362045,
          -0.006455342750996351,
          0.17734307050704956,
          0.21739153563976288,
          0.13525281846523285,
          -0.1092221811413765
        ],
        [
          -0.29879918694496155,
          0.09232298284769058,
          -0.12619340419769287,
          -0.08273711055517197,
          -0.1657378077507019,
          0.10502690076828003,
          0.1839084029197693,
          -0.04473171755671501,
          -0.1404588222503662,
          0.31722429394721985,
          0.028892789036035538,
          0.17796707153320312,
          0.14861176908016205,
          0.2553269863128662,
          -0.05571188032627106,
          -0.21704570949077606,
          -0.005358580499887466,
          0.05971008539199829,
          -0.10776682198047638,
          0.005992594175040722,
          0.1406957507133484,
          -0.0641959086060524,
          0.13297639787197113,
          0.14398431777954102,
          -0.3877311646938324,
          0.08033072203397751,
          -0.11587519198656082,
          0.46119239926338196,
          -0.23029495775699615,
          -0.22351990640163422,
          -0.038071706891059875,
          -0.3120053708553314,
          -0.2978835105895996,
          -0.09370562434196472,
          0.05820009857416153,
          -0.1228557601571083,
          0.0779971107840538,
          0.3553161323070526,
          -0.21578708291053772,
          -0.053348153829574585,
          -0.10078243911266327,
          0.12831363081932068,
          -0.02890089713037014,
          0.19185061752796173,
          0.007260030601173639,
          -0.17464536428451538,
          -0.07155852019786835,
          -0.05135427042841911,
          -0.2801007926464081,
          0.037242669612169266,
          0.06416250020265579,
          0.1935054212808609,
          -0.02498754672706127,
          -0.13873279094696045,
          0.027529118582606316
        ],
        [
          0.04131525754928589,
          -0.36665403842926025,
          0.05939769744873047,
          -0.2086692452430725,
          0.34837543964385986,
          -0.017934681847691536,
          0.1054016500711441,
          -0.005308577790856361,
          0.15181000530719757,
          -0.10024233907461166,
          -0.007513632532209158,
          0.17060486972332,
          -0.3461046814918518,
          -0.12109917402267456,
          -0.07860825955867767,
          -0.26950669288635254,
          -0.15641997754573822,
          0.03015865571796894,
          -0.011154125444591045,
          0.16544967889785767,
          0.3531031608581543,
          0.045550256967544556,
          0.17479193210601807,
          -0.11639337241649628,
          -0.250614196062088,
          0.01874840073287487,
          0.034879475831985474,
          0.12745100259780884,
          0.12866061925888062,
          -0.03753175213932991,
          -0.015350300818681717,
          -0.08294384926557541,
          -0.023206736892461777,
          -0.13825306296348572,
          -0.1271648108959198,
          -0.06011192873120308,
          0.2731665074825287,
          0.2773359715938568,
          0.05032026767730713,
          0.05579507350921631,
          -0.2963367998600006,
          0.012279029004275799,
          0.23741233348846436,
          -0.10714101791381836,
          0.039411693811416626,
          0.2841477394104004,
          0.07084085047245026,
          -0.3760833442211151,
          0.2599361836910248,
          -0.2743849754333496,
          0.3225035071372986,
          0.036404408514499664,
          0.03574531897902489,
          0.03240838274359703,
          -0.27122947573661804
        ],
        [
          0.13092322647571564,
          -0.03226093575358391,
          -0.01850992999970913,
          -0.17700263857841492,
          0.022365503013134003,
          0.008526424877345562,
          -0.2830687165260315,
          0.1034008115530014,
          -0.1354006975889206,
          -0.2556956112384796,
          0.08852569013834,
          0.11474690586328506,
          0.017608819529414177,
          0.06270201504230499,
          0.09192098677158356,
          -0.43879616260528564,
          0.1561821699142456,
          -0.18319518864154816,
          0.10707315057516098,
          0.3475540578365326,
          0.013010961003601551,
          0.029670974239706993,
          -0.14587010443210602,
          0.19958357512950897,
          0.18520841002464294,
          0.06234496086835861,
          0.24564142525196075,
          0.2695532441139221,
          0.1343102753162384,
          -0.08683899790048599,
          -0.09726057946681976,
          0.14443403482437134,
          0.15054789185523987,
          0.24197418987751007,
          0.1653171181678772,
          0.08556219190359116,
          -0.22247792780399323,
          0.07767322659492493,
          0.07142259180545807,
          0.07897695899009705,
          -0.2042766958475113,
          0.20626363158226013,
          0.07338403910398483,
          0.3371919095516205,
          -0.11309076100587845,
          -0.1682949811220169,
          -0.0020658045541495085,
          -0.03511903062462807,
          -0.03389855846762657,
          -0.27121469378471375,
          -0.017772557213902473,
          0.13205869495868683,
          0.5351389646530151,
          0.06691962480545044,
          0.3681337535381317
        ],
        [
          -0.2221321165561676,
          0.024629700928926468,
          0.3623964488506317,
          -0.3651884198188782,
          -0.11708769202232361,
          -0.1751190572977066,
          0.01113109290599823,
          -0.07357293367385864,
          0.21591860055923462,
          -0.05062747374176979,
          -0.11413899064064026,
          -0.1631639301776886,
          0.0011667950311675668,
          0.31168100237846375,
          0.11977337300777435,
          0.09080057591199875,
          -0.0693875104188919,
          -0.3794637620449066,
          -0.20233897864818573,
          -0.159722238779068,
          -0.1667281836271286,
          0.006711323279887438,
          -0.052144698798656464,
          0.011330806650221348,
          0.1957349181175232,
          0.11065202951431274,
          -0.030634354799985886,
          0.17801153659820557,
          -0.10226048529148102,
          0.11579444259405136,
          0.4637991189956665,
          -0.053662851452827454,
          0.042928408831357956,
          -0.07593534886837006,
          0.028974326327443123,
          -0.06549489498138428,
          -0.19763852655887604,
          -0.1486833691596985,
          -0.12591354548931122,
          0.1250927746295929,
          -0.18582683801651,
          -0.2523789405822754,
          -0.06763153523206711,
          0.2799701392650604,
          -0.11155596375465393,
          0.0803651213645935,
          0.1550522744655609,
          -0.12451350688934326,
          0.45898517966270447,
          -0.11690353602170944,
          0.2849372625350952,
          -0.005071092396974564,
          -0.115322545170784,
          -0.28286927938461304,
          0.12720434367656708
        ],
        [
          0.08906424790620804,
          -0.06764445453882217,
          -0.10868357867002487,
          -0.1336381435394287,
          0.23803536593914032,
          0.2871885597705841,
          -0.019483445212244987,
          -0.1428680121898651,
          0.23383966088294983,
          -0.011430492624640465,
          0.07321153581142426,
          -0.4098441004753113,
          -0.03841634839773178,
          -0.11425536125898361,
          -0.06004151329398155,
          0.0730559304356575,
          -0.1951800286769867,
          0.008428734727203846,
          -0.09808605164289474,
          -0.2381952553987503,
          -0.055435530841350555,
          -0.09534762799739838,
          -0.15723317861557007,
          0.282866507768631,
          -0.1682630330324173,
          -0.006056395824998617,
          -0.27125874161720276,
          0.1728716939687729,
          -0.13868775963783264,
          0.08715292811393738,
          0.11556980758905411,
          -0.16080139577388763,
          -0.015701448544859886,
          0.5966120958328247,
          0.007803627755492926,
          -0.32408711314201355,
          -0.18741212785243988,
          -0.015697861090302467,
          0.01365549024194479,
          0.40165188908576965,
          0.020357977598905563,
          0.18950113654136658,
          0.1968805193901062,
          -0.1569269597530365,
          0.19143126904964447,
          -0.1901359111070633,
          0.13541758060455322,
          0.09604336321353912,
          -0.20829571783542633,
          -0.1409543752670288,
          -0.017838219180703163,
          -0.21851716935634613,
          -0.020757179707288742,
          -0.07845418900251389,
          -0.0042208521626889706
        ],
        [
          -0.28754159808158875,
          -0.12560541927814484,
          0.10456008464097977,
          0.016729025170207024,
          -0.11840051412582397,
          -0.21109211444854736,
          -0.14110137522220612,
          -0.04180547222495079,
          0.12045485526323318,
          -0.1462007462978363,
          0.17350517213344574,
          0.20368751883506775,
          0.10463152080774307,
          -0.09305005520582199,
          -0.22022075951099396,
          0.23965772986412048,
          -0.025713510811328888,
          0.3338291645050049,
          0.027123522013425827,
          -0.2078985571861267,
          -0.09354506433010101,
          -0.08873176574707031,
          0.09617817401885986,
          -0.0866689532995224,
          -0.15275204181671143,
          0.32232987880706787,
          -0.16895213723182678,
          0.1311163455247879,
          -0.07227132469415665,
          -0.059122610837221146,
          -0.26818135380744934,
          0.2744673192501068,
          0.0978158563375473,
          0.07142841815948486,
          0.002961970865726471,
          -0.26608598232269287,
          0.11054697632789612,
          -0.22980014979839325,
          -0.017508869990706444,
          0.030878841876983643,
          0.11935107409954071,
          -0.12244676053524017,
          -0.3376844525337219,
          0.10156857967376709,
          0.010565941222012043,
          0.28688374161720276,
          0.1396535038948059,
          -0.09697484970092773,
          -0.10016505420207977,
          0.07443196326494217,
          0.13686563074588776,
          -0.019520675763487816,
          0.45589178800582886,
          -0.10234818607568741,
          0.1203116700053215
        ],
        [
          -0.06139428913593292,
          0.05028282105922699,
          -0.4095136225223541,
          0.0251149982213974,
          0.20725984871387482,
          0.13386189937591553,
          -0.340383380651474,
          0.11632782220840454,
          0.013504195027053356,
          -0.04792213439941406,
          0.19428178668022156,
          0.3769475221633911,
          0.04040220379829407,
          -0.20269161462783813,
          0.06215551123023033,
          0.0624096654355526,
          -0.1668500453233719,
          0.17300072312355042,
          -0.024892356246709824,
          -0.06117399409413338,
          -0.1250850260257721,
          -0.3404809832572937,
          0.04540324956178665,
          0.12057836353778839,
          -0.058464791625738144,
          -0.08688672631978989,
          -0.25851863622665405,
          -0.07169979065656662,
          0.04486255347728729,
          0.3165681064128876,
          0.2633267343044281,
          -0.054808199405670166,
          -0.07284584641456604,
          -0.10970579087734222,
          0.08867678791284561,
          0.021106485277414322,
          -0.11775863915681839,
          0.04261504113674164,
          -0.018344873562455177,
          -0.13839615881443024,
          -0.03979909420013428,
          0.3118995726108551,
          0.1062629446387291,
          0.18881718814373016,
          -0.3106759488582611,
          0.3686675429344177,
          -0.13954249024391174,
          0.21934281289577484,
          0.07587729394435883,
          -0.10130637139081955,
          0.08171521127223969,
          0.0012752502225339413,
          -0.19883547723293304,
          -0.0848245769739151,
          0.2022348940372467
        ],
        [
          -0.36523619294166565,
          0.19384826719760895,
          -0.19944775104522705,
          0.15681642293930054,
          0.19139839708805084,
          0.04846090078353882,
          0.02533421851694584,
          -0.25337302684783936,
          -0.086832694709301,
          -0.15506771206855774,
          -0.1258765161037445,
          0.16166815161705017,
          -0.29676422476768494,
          0.028749171644449234,
          0.1878906637430191,
          -0.143462136387825,
          -0.14357540011405945,
          -0.2912783622741699,
          0.11774322390556335,
          0.20543929934501648,
          -0.46901753544807434,
          0.10202956199645996,
          0.03301144763827324,
          0.0895908772945404,
          0.09912483394145966,
          -0.1300547569990158,
          -0.006076613906770945,
          0.1315208375453949,
          0.43094581365585327,
          -0.016204388812184334,
          -0.09854025393724442,
          -0.28367793560028076,
          0.13560782372951508,
          -0.0350487045943737,
          0.12753230333328247,
          -0.09664668142795563,
          0.03656598553061485,
          -0.015068628825247288,
          -0.1586924046278,
          -0.0181813333183527,
          0.15147948265075684,
          -0.08850256353616714,
          -0.12322405725717545,
          -0.4329012632369995,
          -0.22386595606803894,
          -0.07318984717130661,
          -0.005470541305840015,
          -0.08085016906261444,
          -0.09447452425956726,
          0.08851385116577148,
          0.09659511595964432,
          -0.40799009799957275,
          0.15510255098342896,
          -0.06875158101320267,
          -0.11207428574562073
        ],
        [
          -0.28211936354637146,
          0.3185768127441406,
          -0.11408188939094543,
          -0.0373636819422245,
          -0.27793088555336,
          0.4098489284515381,
          -0.2541024386882782,
          -0.22942009568214417,
          -0.06577088683843613,
          -0.006613343954086304,
          -0.10798687487840652,
          0.2698215842247009,
          0.20977938175201416,
          -0.1026005819439888,
          -0.23774513602256775,
          -0.10757717490196228,
          0.06423696875572205,
          -0.030673079192638397,
          -0.031865376979112625,
          -0.015457303263247013,
          -0.054168518632650375,
          -0.26257675886154175,
          0.056196995079517365,
          0.02796674519777298,
          0.1307389885187149,
          0.21387653052806854,
          0.1923978328704834,
          -0.1680498868227005,
          -0.046999018639326096,
          0.03608855605125427,
          -0.0068941786885261536,
          0.17823044955730438,
          0.15077100694179535,
          0.14872707426548004,
          0.09128716588020325,
          -0.0007924983510747552,
          0.17001108825206757,
          0.25917553901672363,
          -0.13223551213741302,
          0.1478390395641327,
          -0.1824726164340973,
          -0.21730561554431915,
          0.18750348687171936,
          0.12258448451757431,
          -0.0053985342383384705,
          -0.054716989398002625,
          0.07578165829181671,
          0.05046607926487923,
          0.28860053420066833,
          0.002646086737513542,
          0.06430888921022415,
          -0.1689150482416153,
          -0.24736398458480835,
          0.4830794334411621,
          -0.11938770860433578
        ],
        [
          -0.175771564245224,
          0.15765909850597382,
          -0.1649504452943802,
          -0.010594166815280914,
          0.1807813197374344,
          0.09371251612901688,
          0.41394713521003723,
          -0.0992351621389389,
          -0.05697505176067352,
          0.387265682220459,
          0.20036274194717407,
          -0.03394579142332077,
          -0.04813861474394798,
          -0.1409664750099182,
          -0.002532660961151123,
          -0.02256263978779316,
          -0.10860151052474976,
          0.009212613105773926,
          -0.08822399377822876,
          -0.19431805610656738,
          0.05170661583542824,
          -0.3603598177433014,
          0.0639914721250534,
          -0.18389898538589478,
          0.29638829827308655,
          -0.08599294722080231,
          0.3106395900249481,
          0.10336817055940628,
          0.19954629242420197,
          -0.1338585764169693,
          -0.1265198141336441,
          0.4201336205005646,
          -0.05178782716393471,
          -0.13000191748142242,
          0.29290470480918884,
          -0.09606510400772095,
          -0.24561862647533417,
          -0.03793280944228172,
          0.010183676145970821,
          0.1724044382572174,
          0.0553598627448082,
          0.04834599792957306,
          -0.21714703738689423,
          -0.20280224084854126,
          0.17998531460762024,
          0.19874267280101776,
          0.035514481365680695,
          -0.2073371857404709,
          0.041085243225097656,
          -0.1040479764342308,
          0.08057702332735062,
          0.14088353514671326,
          -0.08654125034809113,
          -0.023901810869574547,
          0.29096564650535583
        ],
        [
          0.047606006264686584,
          -0.31955423951148987,
          -0.09866693615913391,
          -0.051466215401887894,
          -0.03091215342283249,
          -0.09500367939472198,
          -0.08654221147298813,
          0.18451300263404846,
          0.08096892386674881,
          0.11310099810361862,
          -0.4147661626338959,
          -0.024936579167842865,
          0.495311975479126,
          -0.1769152730703354,
          0.18633773922920227,
          -0.20543891191482544,
          -0.29039469361305237,
          -0.17969702184200287,
          0.13553696870803833,
          -0.057968586683273315,
          -0.14095538854599,
          0.1652836799621582,
          0.06488160043954849,
          -0.14313767850399017,
          0.04119815304875374,
          0.1765250712633133,
          -0.052022308111190796,
          -0.04583437368273735,
          -0.06337122619152069,
          -0.012068040668964386,
          0.0022396130952984095,
          0.07162348181009293,
          -0.039248302578926086,
          0.0356111079454422,
          -0.021231455728411674,
          -0.06706654280424118,
          0.20437666773796082,
          0.17413084208965302,
          0.03982485830783844,
          0.2633019983768463,
          0.17103447020053864,
          0.2069070041179657,
          -0.3878854513168335,
          -0.08338852226734161,
          -0.19221949577331543,
          0.05819859355688095,
          -0.01973460614681244,
          -0.02599019557237625,
          -0.15368683636188507,
          -0.031046506017446518,
          0.3588116765022278,
          0.0739588662981987,
          -0.17583855986595154,
          0.2038881629705429,
          0.0018094099359586835
        ],
        [
          -0.053894996643066406,
          -0.1338406652212143,
          0.39705944061279297,
          -0.1909247189760208,
          0.05195213109254837,
          0.08690787851810455,
          -0.03923092037439346,
          -0.2413407415151596,
          0.03741958737373352,
          0.22973857820034027,
          0.13128530979156494,
          0.10282706469297409,
          -0.19219012558460236,
          0.38780105113983154,
          -0.0684717521071434,
          -0.22012172639369965,
          -0.14096693694591522,
          -0.010694696567952633,
          0.1176241859793663,
          -0.3091984987258911,
          -0.2015771120786667,
          -0.07384976744651794,
          -0.09642136842012405,
          0.09394622594118118,
          -0.28646841645240784,
          0.15144537389278412,
          0.258281946182251,
          -0.30570361018180847,
          0.2542929947376251,
          0.0023223524913191795,
          -0.15821853280067444,
          -0.09228944778442383,
          0.09584058821201324,
          -0.12968306243419647,
          0.12623286247253418,
          0.026123469695448875,
          0.06273241341114044,
          0.07624953985214233,
          0.1790389120578766,
          -0.09676337987184525,
          0.09362298250198364,
          0.148589089512825,
          0.11972472071647644,
          0.15861722826957703,
          0.13205501437187195,
          -0.030021652579307556,
          -0.004583774600178003,
          0.06823446601629257,
          -0.06884857267141342,
          0.32575151324272156,
          -0.28586137294769287,
          0.10511384904384613,
          -0.08682867884635925,
          -0.07064296305179596,
          0.04291938617825508
        ],
        [
          0.1517142951488495,
          0.25032559037208557,
          0.1994594931602478,
          0.16565261781215668,
          -0.07137422263622284,
          -0.07708403468132019,
          -0.19188757240772247,
          0.11337727308273315,
          0.03006615675985813,
          0.050123538821935654,
          0.1879957616329193,
          0.2143842875957489,
          0.025768131017684937,
          -0.20334944128990173,
          0.42989179491996765,
          0.013226852752268314,
          0.1136862188577652,
          -0.1810399889945984,
          0.0579436793923378,
          0.019193600863218307,
          -0.014546734280884266,
          0.0893791988492012,
          -0.006346918176859617,
          0.09139158576726913,
          -0.36736252903938293,
          -0.026801055297255516,
          0.06737331300973892,
          -0.3640095293521881,
          -0.10381286591291428,
          0.05374615639448166,
          0.2623637616634369,
          0.14692723751068115,
          0.2086414247751236,
          -0.04298272356390953,
          0.1011538878083229,
          -0.3170520067214966,
          0.1469072699546814,
          0.237861767411232,
          -0.17478227615356445,
          -0.019093943759799004,
          0.0019054273143410683,
          -0.10757121443748474,
          -0.18085983395576477,
          -0.009303910657763481,
          -0.040442466735839844,
          -0.10640422999858856,
          0.054031386971473694,
          -0.17969125509262085,
          -0.02803158387541771,
          -0.018412383273243904,
          -0.058553773909807205,
          0.04926026612520218,
          0.04773129150271416,
          -0.3620487153530121,
          -0.12041902542114258
        ],
        [
          -0.0221890639513731,
          -0.11478324979543686,
          0.13467353582382202,
          0.22104822099208832,
          -0.03404607996344566,
          0.2710837721824646,
          -0.2589840292930603,
          0.1482767015695572,
          0.20841625332832336,
          0.17605435848236084,
          -0.024103140458464622,
          0.176712766289711,
          -0.004276367370039225,
          0.06509163975715637,
          -0.15686140954494476,
          -0.3530179560184479,
          -0.11255311220884323,
          -0.14997676014900208,
          0.020096570253372192,
          0.04263448342680931,
          0.1215994656085968,
          -0.17641204595565796,
          -0.05129740387201309,
          -0.28357836604118347,
          -0.12392091006040573,
          -0.10264623165130615,
          0.3577229380607605,
          -0.09713070839643478,
          -0.16659756004810333,
          0.06438061594963074,
          0.04001615196466446,
          -0.15494969487190247,
          -0.22425350546836853,
          -0.002899548038840294,
          -0.05188710615038872,
          -0.2009357213973999,
          0.1230531632900238,
          -0.3160419166088104,
          0.1642114222049713,
          0.13396671414375305,
          0.0906236544251442,
          -0.2972625195980072,
          -0.05171823129057884,
          -0.00630350923165679,
          -0.014842631295323372,
          -0.16282686591148376,
          0.030602963641285896,
          -0.09566149115562439,
          -0.24811767041683197,
          -0.12201112508773804,
          0.128685861825943,
          -0.3987354636192322,
          -0.08127008378505707,
          -0.16373157501220703,
          0.17001791298389435
        ],
        [
          0.02899160236120224,
          -0.016422944143414497,
          0.3284728229045868,
          0.20970049500465393,
          0.13485924899578094,
          0.12974873185157776,
          -0.1835850030183792,
          -0.022503051906824112,
          0.08529214560985565,
          0.03836890682578087,
          -0.16858142614364624,
          0.1145782545208931,
          -0.03891698271036148,
          -0.1847321093082428,
          0.0899830237030983,
          -0.02141135185956955,
          -0.14690349996089935,
          -0.1187354251742363,
          0.1162736713886261,
          -0.04893546178936958,
          0.35518839955329895,
          0.11128564178943634,
          -0.044809240847826004,
          0.4179639518260956,
          -0.004049253184348345,
          -0.4124225676059723,
          -0.15377849340438843,
          0.20462371408939362,
          -0.03575202077627182,
          -0.12253528088331223,
          0.2525676488876343,
          0.05527258291840553,
          0.024576952680945396,
          -0.17557521164417267,
          -0.02196992002427578,
          -0.15185067057609558,
          -0.2909691631793976,
          0.0011334603186696768,
          0.11947919428348541,
          -0.18105283379554749,
          0.031966615468263626,
          -0.13213656842708588,
          -0.2689458131790161,
          0.04390719532966614,
          0.2781129479408264,
          0.0809669941663742,
          -0.15318083763122559,
          -0.03760818392038345,
          0.02841816283762455,
          0.33592689037323,
          0.030939580872654915,
          0.04573453217744827,
          -0.030553437769412994,
          0.5749979019165039,
          0.10450983792543411
        ],
        [
          -0.029531123116612434,
          0.03378048911690712,
          0.2311018854379654,
          0.22760024666786194,
          0.21436414122581482,
          0.09987256675958633,
          -0.12589247524738312,
          -0.12221641093492508,
          0.12898501753807068,
          0.35813137888908386,
          -0.017956707626581192,
          0.03977419063448906,
          -0.14439964294433594,
          -0.10348118096590042,
          0.030964232981204987,
          -0.05085223168134689,
          -0.07895876467227936,
          0.5289092063903809,
          0.12508316338062286,
          0.22067540884017944,
          -0.06411155313253403,
          0.034372858703136444,
          -0.0018945769406855106,
          -0.03454319015145302,
          -0.00042477776878513396,
          0.11838287115097046,
          -0.16162163019180298,
          0.09263745695352554,
          -0.13081078231334686,
          -0.0029769225511699915,
          -0.11134906858205795,
          -0.2134093940258026,
          0.15826347470283508,
          0.18960174918174744,
          -0.033711496740579605,
          0.1286453753709793,
          -0.29819315671920776,
          0.2603050470352173,
          -0.09834029525518417,
          0.21182270348072052,
          -0.24363960325717926,
          -0.4678333103656769,
          -0.2767540514469147,
          0.07194618880748749,
          -0.15025198459625244,
          0.10685167461633682,
          -0.0697612464427948,
          0.08852916210889816,
          0.21773211658000946,
          0.022463703528046608,
          -0.19506865739822388,
          -0.0756523609161377,
          0.10066705197095871,
          -0.13844026625156403,
          0.09623069316148758
        ],
        [
          -0.2609926164150238,
          0.014918118715286255,
          0.0034404874313622713,
          -0.14447376132011414,
          0.05595230311155319,
          0.12937168776988983,
          0.14151936769485474,
          0.22802183032035828,
          -0.18543323874473572,
          0.2410859763622284,
          -0.43229714035987854,
          0.1392574906349182,
          -0.18755917251110077,
          -0.1845247894525528,
          -0.06434756517410278,
          -0.11230023950338364,
          0.14345529675483704,
          0.017488058656454086,
          0.0578610822558403,
          0.05039439722895622,
          -0.0015294249169528484,
          0.07801833003759384,
          -0.2536434531211853,
          -0.16164696216583252,
          -0.1266230344772339,
          -0.03266947716474533,
          -0.07266388088464737,
          -0.0874876007437706,
          -0.2759445309638977,
          -0.26008474826812744,
          0.31704026460647583,
          0.14691655337810516,
          -0.1736176311969757,
          0.07638651877641678,
          0.07757432758808136,
          0.3242796063423157,
          -0.2624344527721405,
          -0.01828409917652607,
          -0.14015482366085052,
          -0.11459484696388245,
          0.42697373032569885,
          0.053371611982584,
          0.18270942568778992,
          0.15109562873840332,
          -0.10688741505146027,
          0.036024414002895355,
          0.08994938433170319,
          -0.11432816088199615,
          -0.059440743178129196,
          -0.06202196329832077,
          -0.11325895041227341,
          -0.15678191184997559,
          0.017952915281057358,
          -0.17028984427452087,
          0.09863988310098648
        ],
        [
          -0.19327589869499207,
          -0.12235916405916214,
          0.2699342668056488,
          -0.04188976436853409,
          -0.33056145906448364,
          -0.2484252154827118,
          -0.00034961942583322525,
          -0.09762954711914062,
          -0.15089775621891022,
          -0.2867070138454437,
          0.024413902312517166,
          -0.04995567724108696,
          -0.04794321954250336,
          -0.40923112630844116,
          0.029780568554997444,
          -0.06933999061584473,
          -0.05678102746605873,
          0.16401739418506622,
          -0.13162614405155182,
          0.060816291719675064,
          -0.1434580236673355,
          -0.1634354293346405,
          -0.3205428123474121,
          0.05244907736778259,
          -0.04887855052947998,
          0.17818915843963623,
          -0.07168565690517426,
          -0.08229854702949524,
          0.18849067389965057,
          0.02943587489426136,
          -0.006617601495236158,
          0.08071906119585037,
          -0.44297850131988525,
          0.19438375532627106,
          -0.13778893649578094,
          0.1396806687116623,
          -0.2555641233921051,
          0.21920274198055267,
          -0.016431042924523354,
          -0.07664979249238968,
          -0.03463541343808174,
          0.11736993491649628,
          -0.16860893368721008,
          -0.14457431435585022,
          -0.07707556337118149,
          -0.2475399225950241,
          -0.09355934709310532,
          -0.5045920610427856,
          0.0005447011790238321,
          0.08762133866548538,
          -0.10152772814035416,
          -0.08272353559732437,
          -0.16893287003040314,
          0.05384303629398346,
          -0.06273920089006424
        ],
        [
          0.004901604261249304,
          0.3753069043159485,
          0.14021697640419006,
          -0.04392619803547859,
          -0.22608935832977295,
          0.23806947469711304,
          0.14881174266338348,
          0.0007525425753556192,
          -0.1276225745677948,
          -0.23640704154968262,
          -0.2849712669849396,
          0.13389725983142853,
          -0.2476208657026291,
          0.05051553249359131,
          -0.0014677084982395172,
          0.012029079720377922,
          0.19609977304935455,
          -0.04960661754012108,
          0.06846462190151215,
          -0.37313809990882874,
          0.09088774770498276,
          0.04589318111538887,
          -0.2473321110010147,
          0.20044131577014923,
          0.12545450031757355,
          0.19609715044498444,
          -0.4102768898010254,
          -0.022624773904681206,
          -0.04430653527379036,
          -0.07343252748250961,
          -0.21533475816249847,
          -0.09596114605665207,
          0.2131403535604477,
          -0.1533307135105133,
          -0.27809521555900574,
          -0.1034119725227356,
          0.22613327205181122,
          0.127397820353508,
          0.07400732487440109,
          -0.04076562076807022,
          0.07104995101690292,
          -0.06170368567109108,
          0.01943591795861721,
          -0.07622692734003067,
          0.0707675889134407,
          0.27201780676841736,
          -0.07461479306221008,
          0.009921954944729805,
          -0.21042518317699432,
          -0.43071243166923523,
          0.09341423213481903,
          -0.033324096351861954,
          -0.02221434935927391,
          -0.03568710759282112,
          0.1455315500497818
        ],
        [
          -0.24553729593753815,
          0.07632698863744736,
          -0.10353262722492218,
          -0.020209601148962975,
          0.04780975729227066,
          0.017587557435035706,
          -0.1659187376499176,
          0.23165959119796753,
          0.2893924117088318,
          -0.0496036671102047,
          0.004461565520614386,
          -0.12424435466527939,
          -0.0402691550552845,
          0.23236709833145142,
          0.2689990997314453,
          -0.11042466014623642,
          -0.13542290031909943,
          0.24059633910655975,
          -0.1870890110731125,
          0.14750359952449799,
          0.2216942459344864,
          0.13661199808120728,
          0.0591517798602581,
          0.009361203759908676,
          0.05175098404288292,
          0.27446112036705017,
          -0.07373911142349243,
          -0.09824395179748535,
          -0.08748384565114975,
          -0.22886840999126434,
          0.08699388056993484,
          0.32406139373779297,
          0.19021259248256683,
          -0.20531730353832245,
          0.193944051861763,
          -0.24907752871513367,
          -0.0956968143582344,
          -0.14832139015197754,
          -0.07015453279018402,
          -0.19560489058494568,
          -0.23829567432403564,
          0.09640128910541534,
          -0.0007782579050399363,
          -0.30549708008766174,
          -0.07783138006925583,
          -0.10240229219198227,
          -0.16117635369300842,
          -0.15595810115337372,
          -0.2303062528371811,
          -0.35890987515449524,
          -0.44568824768066406,
          -0.0439055860042572,
          -0.18136544525623322,
          0.02379496954381466,
          -0.006982605438679457
        ],
        [
          0.0675160214304924,
          -0.014140835963189602,
          0.014250705949962139,
          -0.13297514617443085,
          -0.31306082010269165,
          0.33681541681289673,
          -0.08440013974905014,
          -0.011502483859658241,
          -0.06892073154449463,
          -0.1077854186296463,
          -0.04511604830622673,
          -0.10770869255065918,
          -0.14835785329341888,
          0.083054319024086,
          0.42402297258377075,
          0.10809465497732162,
          -0.3118617534637451,
          -0.0828990712761879,
          -0.15670329332351685,
          0.250851571559906,
          -0.15875069797039032,
          0.26682817935943604,
          0.39116400480270386,
          -0.18669401109218597,
          -0.3493780493736267,
          0.20936332643032074,
          0.006116779986768961,
          0.007365744095295668,
          0.11045923829078674,
          0.03930171951651573,
          -0.17181482911109924,
          0.08560943603515625,
          -0.21208542585372925,
          0.1380673348903656,
          0.0678420141339302,
          0.10053182393312454,
          -0.15824565291404724,
          -0.04904759302735329,
          -0.24950946867465973,
          0.0947020873427391,
          0.09589638561010361,
          0.020074233412742615,
          0.0007635150686837733,
          0.1760571449995041,
          0.307344526052475,
          0.42980027198791504,
          0.10778003931045532,
          0.1108497679233551,
          -0.024382196366786957,
          0.03516092151403427,
          -0.16367965936660767,
          -0.06787540018558502,
          -0.0009346188162453473,
          0.24448366463184357,
          -0.060094740241765976
        ],
        [
          0.09449273347854614,
          -0.27602213621139526,
          0.10135313868522644,
          0.01845434308052063,
          -0.07994816452264786,
          0.028793949633836746,
          0.2537100911140442,
          0.07471515983343124,
          -0.22543005645275116,
          0.01737113483250141,
          -0.0007481558714061975,
          -0.015343355014920235,
          -0.21309210360050201,
          0.14408613741397858,
          0.13416367769241333,
          -0.3810257017612457,
          0.1519859880208969,
          -0.2629399001598358,
          0.05698148161172867,
          -0.05272994190454483,
          -0.027950763702392578,
          -0.27533867955207825,
          0.04247003048658371,
          0.015316459350287914,
          0.05043727532029152,
          -0.1361737996339798,
          -0.24490982294082642,
          0.10352564603090286,
          -0.22346365451812744,
          0.24986794590950012,
          -0.19497908651828766,
          0.2938910126686096,
          0.1341235339641571,
          0.04952732473611832,
          0.039815764874219894,
          -0.002738917013630271,
          -0.030803494155406952,
          -0.28263548016548157,
          -0.33160489797592163,
          0.17482051253318787,
          -0.3014069199562073,
          -0.07491476088762283,
          -0.22401584684848785,
          -0.00048626388888806105,
          -0.19960568845272064,
          0.02689388208091259,
          -0.15938207507133484,
          0.21640229225158691,
          -0.12937726080417633,
          0.0878777951002121,
          -0.16165542602539062,
          0.033141396939754486,
          -0.31209227442741394,
          0.055285654962062836,
          -0.22107543051242828
        ],
        [
          -0.04907947778701782,
          0.02055475302040577,
          0.16799792647361755,
          0.08918453752994537,
          -0.3465239107608795,
          0.07713556289672852,
          0.03160354867577553,
          -0.09445265680551529,
          -0.023533526808023453,
          -0.0660412386059761,
          0.09720019996166229,
          0.1397445946931839,
          -0.06338309496641159,
          -0.20519760251045227,
          -0.11811666190624237,
          0.27902859449386597,
          0.0744495540857315,
          -0.06660851836204529,
          -0.14337913691997528,
          0.49489808082580566,
          0.10084238648414612,
          -0.06702347844839096,
          0.011280379258096218,
          -0.0006758983363397419,
          -0.14954803884029388,
          -0.3053557872772217,
          0.03364081308245659,
          0.3592495918273926,
          -0.0275002159178257,
          -0.16550779342651367,
          -0.12815465033054352,
          0.004602144937962294,
          0.22714096307754517,
          -0.08580319583415985,
          0.07970678061246872,
          -0.07806289941072464,
          0.17626219987869263,
          -0.151951402425766,
          0.15957768261432648,
          0.2202197015285492,
          0.16901062428951263,
          0.41556328535079956,
          -0.29869377613067627,
          0.2113334983587265,
          0.06841230392456055,
          -0.14945156872272491,
          -0.08256269991397858,
          0.1762755960226059,
          0.18209321796894073,
          -0.1479000747203827,
          -0.022503547370433807,
          -0.1429823935031891,
          -0.2362995445728302,
          -0.2766152322292328,
          -0.08800376206636429
        ],
        [
          0.30683523416519165,
          0.12385210394859314,
          -0.09902044385671616,
          -0.20432598888874054,
          -0.12228770554065704,
          -0.08406741172075272,
          -0.22600048780441284,
          -0.2797716557979584,
          0.22798243165016174,
          0.004578833002597094,
          -0.28706875443458557,
          0.08414385467767715,
          -0.1606276035308838,
          0.10826674103736877,
          0.023176342248916626,
          0.3395904302597046,
          -0.057526711374521255,
          0.28199097514152527,
          0.2149391621351242,
          -0.02726803719997406,
          -0.1785207986831665,
          0.01043106522411108,
          -0.057801421731710434,
          0.07317695766687393,
          -0.09998872876167297,
          -0.05528653413057327,
          0.42993998527526855,
          0.1550471931695938,
          -0.18066710233688354,
          -0.16860920190811157,
          0.08152667433023453,
          0.11433670669794083,
          0.055397242307662964,
          -0.22416386008262634,
          -0.19286218285560608,
          0.24797487258911133,
          -0.008384423330426216,
          -0.12369245290756226,
          -0.2755797803401947,
          0.2716839909553528,
          -0.3007838726043701,
          0.17130450904369354,
          0.08994439244270325,
          -0.18112720549106598,
          -0.18591150641441345,
          -0.06048690527677536,
          -0.29920655488967896,
          -0.09453258663415909,
          -0.3137998580932617,
          0.21372255682945251,
          0.23196165263652802,
          0.012173697352409363,
          -0.08911076188087463,
          -0.018116675317287445,
          0.15511511266231537
        ],
        [
          -0.2013249546289444,
          -0.406436949968338,
          -0.11801169812679291,
          -0.12277860939502716,
          -0.16957339644432068,
          0.07106658071279526,
          -0.06680133938789368,
          -0.18088006973266602,
          -0.045298848301172256,
          0.250631719827652,
          0.09663882106542587,
          0.01008047815412283,
          0.18541373312473297,
          -0.08687740564346313,
          0.16874974966049194,
          0.07003358751535416,
          -0.06849852949380875,
          0.00517565943300724,
          0.16156414151191711,
          -0.22621579468250275,
          -0.03683605045080185,
          -0.021265149116516113,
          0.29636842012405396,
          0.1556423306465149,
          -0.0704541802406311,
          -0.1407404989004135,
          -0.20023827254772186,
          0.01467892061918974,
          0.3088845908641815,
          -0.39140191674232483,
          0.11759393662214279,
          0.05351392179727554,
          0.3846895098686218,
          0.2628767788410187,
          -0.07917981594800949,
          0.1947815865278244,
          0.06635507196187973,
          -0.06455597281455994,
          0.12899452447891235,
          -0.2577401399612427,
          -0.05357091501355171,
          -0.17707526683807373,
          0.05360797420144081,
          -0.000664843653794378,
          -0.27275168895721436,
          -0.3045116662979126,
          0.0947951003909111,
          0.02129841037094593,
          0.007198825478553772,
          -0.11756627261638641,
          0.024958094581961632,
          0.2169814258813858,
          -0.14551019668579102,
          -0.11774812638759613,
          -0.12216503173112869
        ],
        [
          -0.0362854078412056,
          0.11641203612089157,
          0.11377711594104767,
          0.19455313682556152,
          -0.07836240530014038,
          0.025004852563142776,
          0.03440788388252258,
          0.09552401304244995,
          0.24691827595233917,
          0.10049706697463989,
          0.11733826249837875,
          0.21934837102890015,
          -0.11262555420398712,
          0.010894463397562504,
          0.18796861171722412,
          -0.05438445508480072,
          -0.061898402869701385,
          -0.14132435619831085,
          0.2612495422363281,
          -0.04603761434555054,
          -0.036487676203250885,
          0.02047278918325901,
          -0.006094479002058506,
          0.05289074778556824,
          0.059000998735427856,
          -0.1160658672451973,
          -0.03518740460276604,
          0.21367275714874268,
          0.038235023617744446,
          -0.27977487444877625,
          0.13149122893810272,
          0.15900444984436035,
          -0.24674344062805176,
          0.38576629757881165,
          -0.17881186306476593,
          -0.0014759136829525232,
          0.3061097264289856,
          -0.24495846033096313,
          -0.34465402364730835,
          -0.033056557178497314,
          0.20693965256214142,
          0.13916882872581482,
          0.3241642415523529,
          -0.17846854031085968,
          -0.062246520072221756,
          0.2914901375770569,
          0.04801807925105095,
          0.016473321244120598,
          0.28272101283073425,
          0.1225883960723877,
          -0.0950363501906395,
          0.2690655589103699,
          0.11390489339828491,
          -0.06367689371109009,
          0.1280663162469864
        ],
        [
          -0.004151929169893265,
          -0.2166772335767746,
          -0.11593423783779144,
          -0.05571194738149643,
          0.07831720262765884,
          0.180624321103096,
          0.15336370468139648,
          -0.012525258585810661,
          0.26340314745903015,
          0.0042643239721655846,
          -0.15066146850585938,
          -0.175092414021492,
          0.030639871954917908,
          -0.17595601081848145,
          -0.13623744249343872,
          -0.09093449264764786,
          0.00089589151320979,
          0.09911643713712692,
          0.016200611367821693,
          -0.1421794295310974,
          -0.23908443748950958,
          0.2659791111946106,
          0.025179319083690643,
          0.008578358218073845,
          0.042008984833955765,
          -0.25946345925331116,
          -0.19127541780471802,
          -0.20111070573329926,
          -0.1866694986820221,
          0.1328270137310028,
          -0.10400018841028214,
          0.11804932355880737,
          0.13299930095672607,
          -0.21379196643829346,
          0.34797123074531555,
          0.033462684601545334,
          0.35251882672309875,
          -0.07241459935903549,
          -0.17260028421878815,
          0.027691280469298363,
          0.06501828134059906,
          0.09155269712209702,
          0.0419820174574852,
          0.412712961435318,
          -0.09595908224582672,
          -0.13812614977359772,
          -0.0901356115937233,
          -0.24345684051513672,
          0.10709328204393387,
          0.07020816206932068,
          -0.19688576459884644,
          -0.19800129532814026,
          0.3701779842376709,
          0.07401585578918457,
          0.0978752076625824
        ],
        [
          -0.0957556813955307,
          0.009254397824406624,
          0.10973922163248062,
          -0.09970564395189285,
          0.3368859589099884,
          0.3239791691303253,
          0.04193348437547684,
          -0.001692508114501834,
          0.36392244696617126,
          -0.47642990946769714,
          0.18145966529846191,
          0.10206498950719833,
          0.21817520260810852,
          -0.00979118887335062,
          -0.06096406280994415,
          -0.1275109499692917,
          0.23656916618347168,
          0.08055097609758377,
          -0.16170193254947662,
          0.10615888237953186,
          -0.0515800341963768,
          0.07960455864667892,
          0.1354549527168274,
          0.09241704642772675,
          0.061409931629896164,
          0.014572539366781712,
          -0.10507627576589584,
          -0.3108668625354767,
          0.159166619181633,
          -0.22470396757125854,
          -0.05214111506938934,
          -0.17529147863388062,
          -0.08320799469947815,
          -0.17674271762371063,
          -0.0908517837524414,
          0.169986292719841,
          -0.059682562947273254,
          -0.06552717834711075,
          -0.24646060168743134,
          0.31685933470726013,
          0.25520554184913635,
          0.04620406776666641,
          -0.12997817993164062,
          0.008978727273643017,
          0.12189890444278717,
          -0.1501440703868866,
          -0.17157919704914093,
          -0.04607637971639633,
          0.14592893421649933,
          0.07418505102396011,
          0.003541460959240794,
          0.3027955889701843,
          -0.35461941361427307,
          -0.16262003779411316,
          0.14049464464187622
        ],
        [
          -0.26170799136161804,
          -0.3159424662590027,
          0.12971428036689758,
          -0.0318249836564064,
          -0.2514075040817261,
          0.07800664007663727,
          -0.0028754572849720716,
          -0.049215443432331085,
          -0.0045351856388151646,
          0.023044196888804436,
          0.10219826549291611,
          -0.1715678721666336,
          -0.2373664230108261,
          -0.10171284526586533,
          0.27864137291908264,
          0.040578197687864304,
          -0.032984305173158646,
          0.08230035752058029,
          -0.2987768352031708,
          -0.08756576478481293,
          0.05307410657405853,
          -0.018794963136315346,
          -0.14622434973716736,
          -0.0826740562915802,
          -0.09299280494451523,
          -0.1993330717086792,
          -0.018547995015978813,
          -0.13973850011825562,
          0.18526706099510193,
          -0.012470395304262638,
          -0.09509598463773727,
          0.07854146510362625,
          -0.08176529407501221,
          -0.05795077234506607,
          -0.1535351723432541,
          -0.22129258513450623,
          0.21179138123989105,
          0.0431431382894516,
          -0.03278321772813797,
          -0.10386360436677933,
          -0.13145963847637177,
          0.01820598728954792,
          0.19545190036296844,
          0.011795949190855026,
          -0.08216402679681778,
          -0.13463224470615387,
          -0.3476841449737549,
          0.21898546814918518,
          0.09003258496522903,
          -0.002979601500555873,
          0.20719127357006073,
          -0.19316527247428894,
          0.04760828614234924,
          0.1780480593442917,
          0.6571514010429382
        ],
        [
          -0.09982842206954956,
          0.06580856442451477,
          -0.22775082290172577,
          -0.3123264014720917,
          -0.039349861443042755,
          -0.1488911509513855,
          0.061970002949237823,
          0.05654114484786987,
          0.24220891296863556,
          0.2411266267299652,
          0.28641149401664734,
          -0.0010609433520585299,
          0.12232062220573425,
          -0.04457716643810272,
          -0.1578020453453064,
          -0.005912328138947487,
          0.2472423017024994,
          -0.2139291614294052,
          0.01622474566102028,
          0.31790676712989807,
          0.23505279421806335,
          0.035906556993722916,
          -0.28912419080734253,
          -0.05546310916543007,
          -0.14834289252758026,
          0.1278529316186905,
          -0.12508906424045563,
          -0.035945866256952286,
          0.020531680434942245,
          0.1394083946943283,
          -0.16694647073745728,
          -0.3321779668331146,
          0.18155334889888763,
          0.050195906311273575,
          -0.3073429763317108,
          -0.10936497896909714,
          -0.0038321574684232473,
          -0.31460073590278625,
          -0.20024900138378143,
          -0.10649239271879196,
          -0.039646174758672714,
          0.028929326683282852,
          -0.0532221645116806,
          -0.03517945855855942,
          -0.29695120453834534,
          0.1812465637922287,
          0.19457203149795532,
          -0.22146350145339966,
          -0.021252453327178955,
          0.32786068320274353,
          -0.18226726353168488,
          -0.06779146194458008,
          -0.14500147104263306,
          0.34277957677841187,
          0.1935538500547409
        ],
        [
          -0.13104721903800964,
          0.10204081982374191,
          -0.01369416806846857,
          0.2544512450695038,
          -0.09670723229646683,
          0.058894120156764984,
          -0.14442113041877747,
          0.230753555893898,
          -0.16714076697826385,
          0.0006995158037170768,
          0.11945953220129013,
          -0.14927534759044647,
          0.0726860836148262,
          -0.15929992496967316,
          -0.15933352708816528,
          -0.16682927310466766,
          -0.1965486705303192,
          -0.2602972090244293,
          -0.05745692551136017,
          -0.10074149817228317,
          0.17497029900550842,
          -0.2262101024389267,
          0.12838053703308105,
          0.1514168232679367,
          -0.06986307352781296,
          0.12076980620622635,
          0.02039656601846218,
          -0.3321375548839569,
          -0.010331754572689533,
          0.026553897187113762,
          0.07736813277006149,
          -0.037905558943748474,
          0.09296739101409912,
          0.15357699990272522,
          -0.23711346089839935,
          0.3391151428222656,
          0.007771520409733057,
          -0.28159815073013306,
          -0.13811174035072327,
          0.043244294822216034,
          -0.32367751002311707,
          0.1280224323272705,
          -0.007857169955968857,
          -0.06142221763730049,
          0.310287743806839,
          0.07763960212469101,
          -0.30079159140586853,
          -0.08744575083255768,
          -0.0796956941485405,
          0.13897424936294556,
          0.1741313487291336,
          0.010226867161691189,
          0.3205350339412689,
          -0.30005943775177,
          -0.06793907284736633
        ],
        [
          -0.14600428938865662,
          0.00010846219811355695,
          0.13506001234054565,
          -0.07221854478120804,
          0.03434930741786957,
          0.01398975495249033,
          0.21370653808116913,
          -0.07344701141119003,
          -0.07516393065452576,
          -0.041923388838768005,
          -0.07135236263275146,
          -0.03549657389521599,
          0.08058898150920868,
          0.012651880271732807,
          0.04880809783935547,
          0.12285877764225006,
          -0.07938624918460846,
          0.299389511346817,
          0.45557186007499695,
          0.22701941430568695,
          0.041494496166706085,
          -0.16800770163536072,
          -0.14513058960437775,
          -0.19665022194385529,
          -0.01621001400053501,
          -0.317129909992218,
          -0.006342514883726835,
          -0.25569066405296326,
          -0.11057458817958832,
          0.08456384390592575,
          0.07381727546453476,
          -0.00025915747391991317,
          0.03880216181278229,
          0.11764463782310486,
          -0.05181155726313591,
          0.017555290833115578,
          0.22008049488067627,
          -0.022721143439412117,
          -0.43809497356414795,
          -0.09181433916091919,
          -0.2690477967262268,
          0.11676908284425735,
          -0.026640238240361214,
          -0.09925295412540436,
          0.3828867971897125,
          -0.22276633977890015,
          0.29817962646484375,
          0.06669267266988754,
          0.1363162249326706,
          -0.29918885231018066,
          0.017699316143989563,
          0.010906768031418324,
          0.01462754886597395,
          0.11566929519176483,
          -0.0072096409276127815
        ],
        [
          0.26784414052963257,
          0.11195071041584015,
          0.2276352494955063,
          -0.14246587455272675,
          -0.28363731503486633,
          0.03100515343248844,
          0.012395932339131832,
          0.025133248418569565,
          -0.05824603885412216,
          -0.054593995213508606,
          0.26098817586898804,
          0.17095839977264404,
          0.4211357533931732,
          0.1738489717245102,
          0.039700672030448914,
          -0.08639190346002579,
          -0.30000218749046326,
          0.06235217675566673,
          -0.10940994322299957,
          -0.05373447760939598,
          0.11013680696487427,
          -0.02905021235346794,
          -0.0853901281952858,
          -0.0052584013901650906,
          -0.031517449766397476,
          -0.24615418910980225,
          -0.37663766741752625,
          0.027664901688694954,
          -0.02780180610716343,
          -0.06909292191267014,
          -0.10578150302171707,
          -0.23893198370933533,
          -0.12121503055095673,
          -0.18612416088581085,
          0.5181737542152405,
          0.45981284976005554,
          0.014319823123514652,
          -0.09331251680850983,
          -0.054842349141836166,
          0.09694919735193253,
          -0.03539462387561798,
          -0.18715108931064606,
          0.06371480971574783,
          -0.4310206472873688,
          -0.07346820086240768,
          0.005877762101590633,
          0.08823655545711517,
          -0.07245340198278427,
          -0.007760573644191027,
          -0.09397369623184204,
          0.08182843029499054,
          -0.11090099811553955,
          0.18362818658351898,
          0.07439740002155304,
          0.16464246809482574
        ],
        [
          -0.3745061159133911,
          -0.08010485768318176,
          0.12661391496658325,
          0.40086692571640015,
          0.17162162065505981,
          -0.1281495839357376,
          0.08915252983570099,
          -0.008018690161406994,
          -0.025667624548077583,
          -0.033506590873003006,
          -0.18378689885139465,
          0.05343770608305931,
          0.20216330885887146,
          -0.035849668085575104,
          0.10360109806060791,
          0.2490685135126114,
          0.01702246256172657,
          -0.03251175954937935,
          -0.17250268161296844,
          -0.10759920626878738,
          0.30809468030929565,
          0.24078623950481415,
          0.02769605815410614,
          0.32803118228912354,
          0.0462464764714241,
          0.22243322432041168,
          0.2907992899417877,
          0.2119269222021103,
          0.10544665157794952,
          0.18966460227966309,
          0.11659658700227737,
          -0.07536836713552475,
          0.015539154410362244,
